{
  "type": "LSTM",
  "options": {
    "inputSize": 47,
    "inputRange": 47,
    "hiddenLayers": [
      20,
      20
    ],
    "outputSize": 47,
    "decayRate": 0.999,
    "smoothEps": 1e-8,
    "regc": 0.000001,
    "clipval": 5,
    "maxPredictionLength": 100,
    "dataFormatter": {
      "indexTable": {
        "1": 5,
        "3": 43,
        "9": 6,
        "C": 0,
        "o": 1,
        "v": 2,
        "i": 3,
        "d": 4,
        " ": 7,
        "I": 8,
        "n": 9,
        "f": 10,
        "c": 11,
        "r": 12,
        "a": 13,
        "S": 14,
        "h": 15,
        "e": 16,
        "l": 17,
        "t": 18,
        "s": 19,
        "V": 20,
        "u": 21,
        "E": 22,
        "k": 23,
        "g": 24,
        "H": 25,
        "J": 26,
        "m": 27,
        "p": 28,
        "채": 29,
        "A": 30,
        "z": 31,
        "b": 32,
        "N": 33,
        "T": 34,
        "F": 35,
        "B": 36,
        "P": 37,
        "Z": 38,
        "W": 39,
        "K": 40,
        "R": 41,
        "-": 42,
        "stop-input": 44,
        "start-output": 45,
        "unrecognized": 46
      },
      "characterTable": {
        "0": "C",
        "1": "o",
        "2": "v",
        "3": "i",
        "4": "d",
        "5": "1",
        "6": "9",
        "7": " ",
        "8": "I",
        "9": "n",
        "10": "f",
        "11": "c",
        "12": "r",
        "13": "a",
        "14": "S",
        "15": "h",
        "16": "e",
        "17": "l",
        "18": "t",
        "19": "s",
        "20": "V",
        "21": "u",
        "22": "E",
        "23": "k",
        "24": "g",
        "25": "H",
        "26": "J",
        "27": "m",
        "28": "p",
        "29": "채",
        "30": "A",
        "31": "z",
        "32": "b",
        "33": "N",
        "34": "T",
        "35": "F",
        "36": "B",
        "37": "P",
        "38": "Z",
        "39": "W",
        "40": "K",
        "41": "R",
        "42": "-",
        "43": "3",
        "44": null,
        "45": null,
        "46": null
      },
      "values": [
        "Covid19 Info",
        "corona",
        "Schnelltest",
        "Covid 19",
        "Infos Covid",
        "Virus",
        "Erkrankung",
        "Corona Hilfe",
        "Jemand ist erkrankt",
        "Sp채tfolgen",
        "Auto anmelden",
        "kfz",
        "Auto abmelden",
        "Auto Niederlassungsstelle",
        "Niederlassungsstelle",
        "Impfung",
        "Test",
        "krank",
        "Inzidenz",
        "Fallzahlen",
        "Impftermin",
        "Biontech",
        "Pfizer",
        "Vaccine",
        "Impfstoff",
        "Impfstoffe",
        "Impfen",
        "Impfen lassen",
        "Impfgruppen",
        "Impfzentrum",
        "Impfzentren",
        "AstraZenica",
        "Welcher Impfstoff ist gut",
        "Wunschkennzeichen",
        "Kennzeichen",
        "Auto",
        "Eigenes Kennzeichen",
        "Schnelltests",
        "PCR Test",
        "PCR-Test",
        "Antigentest",
        "Antigentests",
        "3 Tages Kennzeichen",
        "auto",
        "Wunschkenzeichen",
        "corna"
      ],
      "characters": [
        "C",
        "o",
        "v",
        "i",
        "d",
        "1",
        "9",
        " ",
        "I",
        "n",
        "f",
        "c",
        "r",
        "a",
        "S",
        "h",
        "e",
        "l",
        "t",
        "s",
        "V",
        "u",
        "E",
        "k",
        "g",
        "H",
        "J",
        "m",
        "p",
        "채",
        "A",
        "z",
        "b",
        "N",
        "T",
        "F",
        "B",
        "P",
        "Z",
        "W",
        "K",
        "R",
        "-",
        "3",
        "stop-input",
        "start-output",
        "unrecognized"
      ],
      "specialIndexes": [
        44,
        45,
        46
      ]
    }
  },
  "input": {
    "rows": 48,
    "columns": 47,
    "weights": {
      "0": -0.5385406017303467,
      "1": -0.2837943136692047,
      "2": 1.540328025817871,
      "3": -1.1758090257644653,
      "4": 2.866115093231201,
      "5": 0.8845226168632507,
      "6": 1.2139822244644165,
      "7": 0.5958737134933472,
      "8": -0.7260965704917908,
      "9": -1.375435709953308,
      "10": 1.6551954746246338,
      "11": -2.4781768321990967,
      "12": -0.5704441666603088,
      "13": -1.058380365371704,
      "14": 1.6838057041168213,
      "15": 2.1642720699310303,
      "16": 0.05661291256546974,
      "17": 0.5628389716148376,
      "18": 2.3722474575042725,
      "19": -1.7950260639190674,
      "20": -0.7949439287185669,
      "21": 2.357556104660034,
      "22": -0.09749646484851837,
      "23": 0.5885204672813416,
      "24": -0.011582663282752037,
      "25": 2.3262500762939453,
      "26": 2.356241464614868,
      "27": -0.7522554397583008,
      "28": 1.2334394454956055,
      "29": -0.49870848655700684,
      "30": 1.5548808574676514,
      "31": 1.6886259317398071,
      "32": 1.7765251398086548,
      "33": 0.16634595394134521,
      "34": 0.7569214701652527,
      "35": 0.23850509524345398,
      "36": 2.8335719108581543,
      "37": -1.3996740579605103,
      "38": -2.345566749572754,
      "39": 2.7418410778045654,
      "40": 1.5078574419021606,
      "41": -0.4835686981678009,
      "42": 0.44039595127105713,
      "43": -1.4923073053359985,
      "44": -1.3791840076446533,
      "45": 0.10917757451534271,
      "46": -1.0833297967910767,
      "47": 6.316251277923584,
      "48": 2.774155616760254,
      "49": 1.173774003982544,
      "50": -5.59304141998291,
      "51": -1.4877363443374634,
      "52": -2.006784677505493,
      "53": 0.2940518260002136,
      "54": -6.127810955047607,
      "55": -1.0562846660614014,
      "56": -0.9859257936477661,
      "57": -0.4461826980113983,
      "58": -1.4726070165634155,
      "59": -0.18591970205307007,
      "60": 4.940260887145996,
      "61": 1.6206037998199463,
      "62": 1.5131163597106934,
      "63": -2.092377185821533,
      "64": -0.5688700079917908,
      "65": 2.433029890060425,
      "66": 3.5419342517852783,
      "67": -2.867663860321045,
      "68": -4.243922710418701,
      "69": -0.5800033211708069,
      "70": -3.411628246307373,
      "71": -0.5106086730957031,
      "72": -1.4209928512573242,
      "73": -4.053716659545898,
      "74": -6.425357818603516,
      "75": -5.375704288482666,
      "76": 3.5631656646728516,
      "77": -3.805476427078247,
      "78": 1.6652085781097412,
      "79": -0.46929144859313965,
      "80": -3.216686964035034,
      "81": 3.179887056350708,
      "82": 0.8526797294616699,
      "83": 4.073680877685547,
      "84": 2.3509695529937744,
      "85": 5.10764741897583,
      "86": -1.1294684410095215,
      "87": -4.045712947845459,
      "88": 3.5952467918395996,
      "89": 0.13643020391464233,
      "90": -0.5704277753829956,
      "91": 4.586208820343018,
      "92": 2.3643200397491455,
      "93": 0.5365475416183472,
      "94": 0.6113297939300537,
      "95": 0.05495290458202362,
      "96": 1.4944353103637695,
      "97": -3.0401363372802734,
      "98": -0.13779163360595703,
      "99": -1.1621873378753662,
      "100": -0.10967418551445007,
      "101": 0.6336320638656616,
      "102": 1.7494062185287476,
      "103": -1.118597149848938,
      "104": 0.96504145860672,
      "105": -2.0682806968688965,
      "106": -0.5160247087478638,
      "107": 1.1247256994247437,
      "108": 0.11732898652553558,
      "109": 1.1664152145385742,
      "110": 0.2382887601852417,
      "111": -5.740379810333252,
      "112": 1.9167388677597046,
      "113": 1.0152415037155151,
      "114": -1.9836583137512207,
      "115": -0.6291998028755188,
      "116": 0.07640914618968964,
      "117": -1.2053897380828857,
      "118": 0.6721989512443542,
      "119": -3.0826175212860107,
      "120": -0.6781104207038879,
      "121": -0.3156372010707855,
      "122": -1.3197416067123413,
      "123": 1.3271948099136353,
      "124": -1.0588159561157227,
      "125": 1.3569945096969604,
      "126": 2.658461809158325,
      "127": -1.8989185094833374,
      "128": 3.5667262077331543,
      "129": -0.23413778841495514,
      "130": -0.07556653767824173,
      "131": 3.517706871032715,
      "132": 0.06452614814043045,
      "133": 0.2346041202545166,
      "134": -2.927354574203491,
      "135": -1.1740999221801758,
      "136": 1.4347985982894897,
      "137": 2.2083654403686523,
      "138": -0.9729776978492737,
      "139": 1.097747802734375,
      "140": 1.4061930179595947,
      "141": 4.280794620513916,
      "142": -0.7729790210723877,
      "143": 1.2702784538269043,
      "144": 2.238159418106079,
      "145": -3.938034772872925,
      "146": -6.376485824584961,
      "147": 1.7831902503967285,
      "148": -5.807246685028076,
      "149": 4.131153106689453,
      "150": 2.2356863021850586,
      "151": 5.736664772033691,
      "152": 5.701638698577881,
      "153": 1.585574984550476,
      "154": 8.182226181030273,
      "155": 1.0565252304077148,
      "156": -1.623725414276123,
      "157": 5.195730686187744,
      "158": -0.36793190240859985,
      "159": 7.610019683837891,
      "160": -7.108378887176514,
      "161": -3.376984119415283,
      "162": 4.022895812988281,
      "163": -2.0160303115844727,
      "164": 4.419591426849365,
      "165": 1.426504135131836,
      "166": 0.554961085319519,
      "167": -3.387570381164551,
      "168": -2.136918306350708,
      "169": -2.3214151859283447,
      "170": 8.994593620300293,
      "171": -0.3490835130214691,
      "172": 1.587897539138794,
      "173": -2.923165798187256,
      "174": 3.195418119430542,
      "175": -2.5277435779571533,
      "176": 3.0667998790740967,
      "177": 5.078964710235596,
      "178": 0.5387075543403625,
      "179": 3.1756882667541504,
      "180": -0.9954609870910645,
      "181": 4.355269908905029,
      "182": 3.7965035438537598,
      "183": 2.4029619693756104,
      "184": 6.8689775466918945,
      "185": 1.0459812879562378,
      "186": -3.1908960342407227,
      "187": 4.374810218811035,
      "188": -2.0582640171051025,
      "189": -2.204440116882324,
      "190": -2.496101140975952,
      "191": -0.8064575791358948,
      "192": 0.2198028713464737,
      "193": -4.293051242828369,
      "194": -3.395610809326172,
      "195": 1.782745599746704,
      "196": -0.3875891864299774,
      "197": 1.9128469228744507,
      "198": 2.478898763656616,
      "199": -1.1046744585037231,
      "200": -1.3601863384246826,
      "201": -1.928397536277771,
      "202": 0.8690406084060669,
      "203": -1.7266395092010498,
      "204": 3.2119433879852295,
      "205": 1.679163932800293,
      "206": -0.532558023929596,
      "207": -3.4606549739837646,
      "208": -0.3518418073654175,
      "209": 3.9127378463745117,
      "210": 1.6633318662643433,
      "211": 4.094351768493652,
      "212": -2.8555777072906494,
      "213": -3.1184582710266113,
      "214": 0.844997763633728,
      "215": 1.714476466178894,
      "216": 2.121417999267578,
      "217": 0.11996296793222427,
      "218": 4.108248710632324,
      "219": 0.27874743938446045,
      "220": -1.2537776231765747,
      "221": -2.993917942047119,
      "222": 1.9543592929840088,
      "223": 2.1430366039276123,
      "224": 2.0034377574920654,
      "225": 3.0215256214141846,
      "226": -6.7592010498046875,
      "227": 2.627408504486084,
      "228": 5.097416877746582,
      "229": -0.029660848900675774,
      "230": 1.1464301347732544,
      "231": -0.9765658378601074,
      "232": -2.1415462493896484,
      "233": -5.534574508666992,
      "234": -3.55503249168396,
      "235": 6.261015892028809,
      "236": -1.4049525260925293,
      "237": 3.413426637649536,
      "238": -4.723430156707764,
      "239": -0.0454673245549202,
      "240": -1.2487910985946655,
      "241": 3.5412142276763916,
      "242": -3.155865430831909,
      "243": 1.374038577079773,
      "244": -0.3383910655975342,
      "245": 2.270613431930542,
      "246": -1.338666558265686,
      "247": -0.7877362966537476,
      "248": 4.549875259399414,
      "249": -2.475436210632324,
      "250": 2.5600719451904297,
      "251": -1.0634841918945312,
      "252": -0.8982139229774475,
      "253": 2.8285844326019287,
      "254": -0.6370643377304077,
      "255": -1.5818053483963013,
      "256": -2.399540424346924,
      "257": -5.180424213409424,
      "258": 2.8169736862182617,
      "259": 1.3686847686767578,
      "260": 1.3755356073379517,
      "261": -2.0096235275268555,
      "262": -4.584391117095947,
      "263": 1.1827937364578247,
      "264": 0.33934861421585083,
      "265": -1.9613008499145508,
      "266": 2.646672248840332,
      "267": -2.186049461364746,
      "268": 3.895051956176758,
      "269": -2.7154245376586914,
      "270": -0.6283242702484131,
      "271": 1.0773183107376099,
      "272": -3.5130693912506104,
      "273": 0.4474857449531555,
      "274": 2.72941255569458,
      "275": -3.240055561065674,
      "276": 0.3094058930873871,
      "277": 0.21101321280002594,
      "278": 1.4713021516799927,
      "279": 0.14064905047416687,
      "280": -0.13817377388477325,
      "281": 1.9167345762252808,
      "282": 2.190567970275879,
      "283": 3.930387496948242,
      "284": -8.602916717529297,
      "285": -1.6329030990600586,
      "286": -1.094159722328186,
      "287": -5.030436992645264,
      "288": -2.1972622871398926,
      "289": -1.2261236906051636,
      "290": 2.477142810821533,
      "291": -1.0546815395355225,
      "292": 3.111323118209839,
      "293": 0.12670761346817017,
      "294": 7.117467403411865,
      "295": 0.6913378238677979,
      "296": -12.041747093200684,
      "297": -3.9092535972595215,
      "298": 2.3589282035827637,
      "299": 2.4459192752838135,
      "300": 0.2234148383140564,
      "301": 10.571612358093262,
      "302": -3.5104427337646484,
      "303": 7.979480743408203,
      "304": -0.1532251089811325,
      "305": -0.023335125297307968,
      "306": -11.55935287475586,
      "307": -0.5706403851509094,
      "308": 0.5281644463539124,
      "309": 3.8058900833129883,
      "310": -9.099464416503906,
      "311": -5.305884838104248,
      "312": 0.36602386832237244,
      "313": -6.598800182342529,
      "314": 1.7391738891601562,
      "315": -3.963895797729492,
      "316": -0.9159553050994873,
      "317": -1.9238982200622559,
      "318": -0.15132123231887817,
      "319": 0.29716190695762634,
      "320": 5.5731682777404785,
      "321": -3.62762713432312,
      "322": -6.633702278137207,
      "323": -1.7242817878723145,
      "324": -8.064041137695312,
      "325": 8.093307495117188,
      "326": 5.587931156158447,
      "327": 3.099431037902832,
      "328": 5.358453273773193,
      "329": -3.5340609550476074,
      "330": -1.181335210800171,
      "331": 1.1094751358032227,
      "332": -9.664101600646973,
      "333": -4.425565242767334,
      "334": 8.196523666381836,
      "335": -5.227622985839844,
      "336": 4.99506950378418,
      "337": -4.551230430603027,
      "338": 4.195282936096191,
      "339": 2.2883176803588867,
      "340": -10.695943832397461,
      "341": 2.9456756114959717,
      "342": -2.3381645679473877,
      "343": 7.57904052734375,
      "344": 6.3197526931762695,
      "345": 3.325725793838501,
      "346": 1.7364546060562134,
      "347": -5.313724040985107,
      "348": -9.650286674499512,
      "349": -8.565499305725098,
      "350": 4.121282577514648,
      "351": 1.5995064973831177,
      "352": -1.0098272562026978,
      "353": -2.4914584159851074,
      "354": -3.9463486671447754,
      "355": 7.263615608215332,
      "356": 3.010175943374634,
      "357": 12.080655097961426,
      "358": -12.07470703125,
      "359": 1.4525355100631714,
      "360": -9.28272819519043,
      "361": -0.7692586183547974,
      "362": -0.5651611685752869,
      "363": -3.690563201904297,
      "364": -5.933095932006836,
      "365": 0.4447028338909149,
      "366": -0.523185133934021,
      "367": 3.706665515899658,
      "368": 1.6092673540115356,
      "369": 2.744443416595459,
      "370": 5.35400390625,
      "371": 3.418368101119995,
      "372": -5.15339469909668,
      "373": -1.6539489030838013,
      "374": -1.765277624130249,
      "375": 6.718029975891113,
      "376": -0.2923930883407593,
      "377": -0.5703350901603699,
      "378": -4.459132671356201,
      "379": 3.4011104106903076,
      "380": 0.3572096824645996,
      "381": 2.821018934249878,
      "382": 0.5150341987609863,
      "383": 2.9082558155059814,
      "384": -3.452056884765625,
      "385": 2.818697214126587,
      "386": 0.14751304686069489,
      "387": 0.6059287190437317,
      "388": -0.18993867933750153,
      "389": -3.4772887229919434,
      "390": 0.3723812401294708,
      "391": 0.8353503346443176,
      "392": -0.7351800203323364,
      "393": 1.2561103105545044,
      "394": -3.4213151931762695,
      "395": -3.7199950218200684,
      "396": 3.394249677658081,
      "397": -2.245269775390625,
      "398": 2.6489202976226807,
      "399": 0.0027607327792793512,
      "400": 1.860084056854248,
      "401": 2.3718957901000977,
      "402": 1.2932188510894775,
      "403": 6.242763519287109,
      "404": 2.492912530899048,
      "405": -1.4809820652008057,
      "406": 2.0603015422821045,
      "407": -1.643373727798462,
      "408": -0.8310002684593201,
      "409": 1.098293423652649,
      "410": -0.7078855633735657,
      "411": 1.4025732278823853,
      "412": -2.2847633361816406,
      "413": 0.4281425178050995,
      "414": 1.7435522079467773,
      "415": 3.486581325531006,
      "416": 0.6024170517921448,
      "417": 0.39802080392837524,
      "418": -1.2245230674743652,
      "419": -0.2795286774635315,
      "420": 1.5432274341583252,
      "421": -1.6738736629486084,
      "422": 0.5842341184616089,
      "423": 0.2967104911804199,
      "424": -0.0867343544960022,
      "425": -3.4291491508483887,
      "426": 3.843536853790283,
      "427": 2.5271241664886475,
      "428": 0.2796016335487366,
      "429": 2.620410442352295,
      "430": -0.8765985369682312,
      "431": -5.947283744812012,
      "432": 2.6946234703063965,
      "433": -7.495332717895508,
      "434": 2.629864454269409,
      "435": -6.782757759094238,
      "436": -4.539742946624756,
      "437": 2.431260108947754,
      "438": 0.7635433077812195,
      "439": -1.8009339570999146,
      "440": 1.820487141609192,
      "441": 3.743760585784912,
      "442": 1.3319555521011353,
      "443": 4.492080211639404,
      "444": -4.632387161254883,
      "445": 2.985729217529297,
      "446": -3.1700079441070557,
      "447": 0.8539294004440308,
      "448": 4.204329490661621,
      "449": 0.9197310209274292,
      "450": -0.5038213133811951,
      "451": 3.917292594909668,
      "452": 2.798814296722412,
      "453": 1.4434789419174194,
      "454": 5.457909107208252,
      "455": 5.1130595207214355,
      "456": 7.3734636306762695,
      "457": -1.1283892393112183,
      "458": 1.6325323581695557,
      "459": -0.8695154190063477,
      "460": 0.33283618092536926,
      "461": -1.3106679916381836,
      "462": 1.5359488725662231,
      "463": -3.8654749393463135,
      "464": 1.0762182474136353,
      "465": 7.598097324371338,
      "466": -2.7154576778411865,
      "467": 1.251164436340332,
      "468": 4.972880840301514,
      "469": 1.9936643838882446,
      "470": 1.6886693239212036,
      "471": 2.1110780239105225,
      "472": -0.7719089388847351,
      "473": -3.128549098968506,
      "474": 1.9797677993774414,
      "475": -0.795619785785675,
      "476": 0.10259875655174255,
      "477": -2.978681802749634,
      "478": 2.2692458629608154,
      "479": -0.31022191047668457,
      "480": 0.8561956286430359,
      "481": -2.505702495574951,
      "482": 0.7856655120849609,
      "483": 0.2733229100704193,
      "484": -1.474866509437561,
      "485": -0.7641076445579529,
      "486": -0.7687283754348755,
      "487": 1.3194117546081543,
      "488": 0.23724985122680664,
      "489": -2.502741813659668,
      "490": -1.1441705226898193,
      "491": 1.1264550685882568,
      "492": -2.6070966720581055,
      "493": 1.7576017379760742,
      "494": -3.5800058841705322,
      "495": -0.3206051290035248,
      "496": -0.4031548798084259,
      "497": -1.796491026878357,
      "498": -3.0459961891174316,
      "499": 1.3307228088378906,
      "500": 1.7383373975753784,
      "501": 0.3408775329589844,
      "502": -1.2199500799179077,
      "503": 2.0779967308044434,
      "504": -0.8138062953948975,
      "505": 0.27442416548728943,
      "506": 3.1800343990325928,
      "507": -2.6513917446136475,
      "508": -0.9929647445678711,
      "509": 1.8378551006317139,
      "510": 0.22906507551670074,
      "511": -0.3360201120376587,
      "512": 1.4434523582458496,
      "513": 0.3141694962978363,
      "514": 0.03488275036215782,
      "515": -5.361583232879639,
      "516": 1.7899818420410156,
      "517": 0.5975204706192017,
      "518": -1.6847046613693237,
      "519": -0.36263853311538696,
      "520": 1.7249090671539307,
      "521": -0.18868263065814972,
      "522": -2.485680341720581,
      "523": 4.354363918304443,
      "524": 0.5037752985954285,
      "525": -0.8311206102371216,
      "526": -0.027931543067097664,
      "527": 0.8250812888145447,
      "528": 2.4863059520721436,
      "529": -3.386892318725586,
      "530": 0.02505416050553322,
      "531": 4.213006019592285,
      "532": -0.443200945854187,
      "533": -0.44788068532943726,
      "534": 0.5054504871368408,
      "535": 1.9455875158309937,
      "536": -0.17184093594551086,
      "537": 2.0686018466949463,
      "538": -3.383117437362671,
      "539": -0.40537869930267334,
      "540": -2.3063344955444336,
      "541": 3.5900795459747314,
      "542": -0.20949894189834595,
      "543": -1.814769983291626,
      "544": -0.1825139820575714,
      "545": -3.0873219966888428,
      "546": 0.4056721329689026,
      "547": -0.9448049068450928,
      "548": 6.072494029998779,
      "549": 0.7467823624610901,
      "550": 2.858325242996216,
      "551": 2.211212396621704,
      "552": 1.9272373914718628,
      "553": -0.02635139226913452,
      "554": 0.564034640789032,
      "555": 0.7722715139389038,
      "556": -0.8375546336174011,
      "557": -1.877326488494873,
      "558": -3.1895592212677,
      "559": 3.4359359741210938,
      "560": -0.4946158528327942,
      "561": -3.572941780090332,
      "562": -3.594294786453247,
      "563": 0.6376709938049316,
      "564": -0.70439213514328,
      "565": -2.1762797832489014,
      "566": 0.40220558643341064,
      "567": 0.9793164730072021,
      "568": 1.569046974182129,
      "569": -0.01784364879131317,
      "570": -1.655624270439148,
      "571": 0.32229605317115784,
      "572": 0.8443443775177002,
      "573": -0.32453542947769165,
      "574": -0.9803717136383057,
      "575": -0.8935080766677856,
      "576": 2.3339459896087646,
      "577": -0.7447117567062378,
      "578": -3.768778085708618,
      "579": 0.4130746126174927,
      "580": 0.39250436425209045,
      "581": -1.354033350944519,
      "582": 0.5216292142868042,
      "583": 0.4918455481529236,
      "584": 0.9853910207748413,
      "585": 1.7617756128311157,
      "586": 0.718146562576294,
      "587": 2.031888723373413,
      "588": 0.4321351647377014,
      "589": -0.821303129196167,
      "590": 1.2195316553115845,
      "591": 0.13851596415042877,
      "592": -1.0249130725860596,
      "593": 2.789719820022583,
      "594": -1.495743989944458,
      "595": 1.8756468296051025,
      "596": 2.470041036605835,
      "597": -1.0649117231369019,
      "598": 2.7921218872070312,
      "599": -0.837310254573822,
      "600": 4.22304105758667,
      "601": -1.1639035940170288,
      "602": -0.1508999466896057,
      "603": -1.138270616531372,
      "604": -0.29046809673309326,
      "605": 2.496415376663208,
      "606": 1.8710976839065552,
      "607": 3.0513763427734375,
      "608": 2.561274766921997,
      "609": 2.9626777172088623,
      "610": 3.6664044857025146,
      "611": -0.5194804072380066,
      "612": 3.2551066875457764,
      "613": 2.521355628967285,
      "614": 0.34404563903808594,
      "615": 0.06087673082947731,
      "616": 0.2967785596847534,
      "617": -3.0994815826416016,
      "618": 1.0423645973205566,
      "619": -0.13533838093280792,
      "620": -2.8447282314300537,
      "621": 0.09524073451757431,
      "622": -2.4821877479553223,
      "623": -0.9382862448692322,
      "624": -2.4147789478302,
      "625": -1.0261085033416748,
      "626": 0.7035927772521973,
      "627": -0.2819823622703552,
      "628": -0.018466327339410782,
      "629": -0.6080633997917175,
      "630": -2.037360906600952,
      "631": -4.527721881866455,
      "632": 0.4508727490901947,
      "633": 3.2259843349456787,
      "634": -3.043935537338257,
      "635": -3.442599296569824,
      "636": -2.415602207183838,
      "637": -0.5869043469429016,
      "638": 3.585461139678955,
      "639": 1.7655889987945557,
      "640": -1.2369084358215332,
      "641": 2.2329301834106445,
      "642": -1.1653398275375366,
      "643": 0.6475712060928345,
      "644": -0.6277638673782349,
      "645": 0.5639921426773071,
      "646": -3.008659839630127,
      "647": -0.7743286490440369,
      "648": 1.2384378910064697,
      "649": -0.00991697609424591,
      "650": 1.0171611309051514,
      "651": -1.1689826250076294,
      "652": 2.0436623096466064,
      "653": 0.35160863399505615,
      "654": 0.2121727168560028,
      "655": -2.744631290435791,
      "656": -2.5578958988189697,
      "657": 0.2233617603778839,
      "658": 0.11459776014089584,
      "659": -1.7454354763031006,
      "660": 0.2793971598148346,
      "661": -1.1227507591247559,
      "662": 0.6776461601257324,
      "663": -1.9866869449615479,
      "664": 2.092535972595215,
      "665": 1.2491697072982788,
      "666": 3.9813873767852783,
      "667": -0.008443067781627178,
      "668": 1.169472098350525,
      "669": -1.4888437986373901,
      "670": -2.347419023513794,
      "671": 0.11102133989334106,
      "672": -1.3244549036026,
      "673": -1.7442219257354736,
      "674": 2.6035571098327637,
      "675": 0.274521142244339,
      "676": -0.9735709428787231,
      "677": -1.0758297443389893,
      "678": -0.7820321321487427,
      "679": 0.556308925151825,
      "680": 3.1957857608795166,
      "681": 2.164445638656616,
      "682": 0.9197383522987366,
      "683": -1.8674452304840088,
      "684": 0.5426440238952637,
      "685": -0.32777488231658936,
      "686": 0.6157443523406982,
      "687": 1.1060081720352173,
      "688": 4.528299808502197,
      "689": -0.31299248337745667,
      "690": -0.5804347395896912,
      "691": -0.19802340865135193,
      "692": -0.6881994605064392,
      "693": 2.6787009239196777,
      "694": -0.6064052581787109,
      "695": 0.4368678033351898,
      "696": 1.8140729665756226,
      "697": 2.231647491455078,
      "698": 0.9765032529830933,
      "699": -0.6882293224334717,
      "700": 2.236152172088623,
      "701": 0.48609820008277893,
      "702": -1.645134687423706,
      "703": -2.2483608722686768,
      "704": -2.206042528152466,
      "705": -2.907550096511841,
      "706": -1.397289752960205,
      "707": 3.1438679695129395,
      "708": 6.902987003326416,
      "709": -6.787080764770508,
      "710": -5.341506481170654,
      "711": -7.1432108879089355,
      "712": 2.3239214420318604,
      "713": -0.9518195390701294,
      "714": -9.323871612548828,
      "715": -2.528853178024292,
      "716": 6.957636833190918,
      "717": -3.387000560760498,
      "718": 1.4316149950027466,
      "719": -5.655724048614502,
      "720": 2.9623351097106934,
      "721": 5.4749321937561035,
      "722": -1.453728437423706,
      "723": 3.8256733417510986,
      "724": 3.2695164680480957,
      "725": -10.934069633483887,
      "726": 1.397566556930542,
      "727": -0.17934942245483398,
      "728": -0.40821290016174316,
      "729": -0.524739682674408,
      "730": -8.012784004211426,
      "731": 0.03543993458151817,
      "732": -1.8646320104599,
      "733": -0.8424067497253418,
      "734": 1.2111282348632812,
      "735": 3.30188250541687,
      "736": -1.9276961088180542,
      "737": -2.969144582748413,
      "738": 0.22553019225597382,
      "739": -4.805748462677002,
      "740": 2.8528237342834473,
      "741": 2.2009739875793457,
      "742": -1.4356530904769897,
      "743": -1.5527695417404175,
      "744": -7.050644397735596,
      "745": -0.9660854339599609,
      "746": -2.2076284885406494,
      "747": -1.286391019821167,
      "748": 2.4447216987609863,
      "749": -1.7902106046676636,
      "750": 3.4891107082366943,
      "751": -6.318522930145264,
      "752": -0.1736382395029068,
      "753": 0.5977304577827454,
      "754": -0.7377455830574036,
      "755": 2.0109405517578125,
      "756": 4.148035526275635,
      "757": 2.2210276126861572,
      "758": -0.624943196773529,
      "759": -1.8442620038986206,
      "760": -0.9151527881622314,
      "761": -0.8045719861984253,
      "762": -1.673502802848816,
      "763": -3.5904436111450195,
      "764": 1.277490258216858,
      "765": -0.12699684500694275,
      "766": -0.46145492792129517,
      "767": -0.780327320098877,
      "768": -2.9182305335998535,
      "769": -0.697600781917572,
      "770": 2.164184331893921,
      "771": -1.3185726404190063,
      "772": -1.0489946603775024,
      "773": 0.15993531048297882,
      "774": -0.5202817916870117,
      "775": -1.313895583152771,
      "776": -4.888689994812012,
      "777": 5.139501094818115,
      "778": 3.686060905456543,
      "779": 0.7982817888259888,
      "780": -2.1233010292053223,
      "781": -1.1939526796340942,
      "782": 4.823726654052734,
      "783": 5.514914035797119,
      "784": 4.595248699188232,
      "785": -0.5079220533370972,
      "786": -0.015148579142987728,
      "787": 1.9352436065673828,
      "788": 2.2964494228363037,
      "789": -3.98055100440979,
      "790": 1.522528052330017,
      "791": -0.7592883706092834,
      "792": -3.205862283706665,
      "793": 0.05300872400403023,
      "794": -1.4181793928146362,
      "795": 3.8047947883605957,
      "796": -1.02314293384552,
      "797": 1.7276670932769775,
      "798": 1.1686811447143555,
      "799": 1.9606218338012695,
      "800": -1.2063919305801392,
      "801": 0.13775619864463806,
      "802": -1.3625065088272095,
      "803": -0.2516113817691803,
      "804": -2.5519964694976807,
      "805": 0.17160022258758545,
      "806": 2.165722370147705,
      "807": 0.14514628052711487,
      "808": 0.7563871741294861,
      "809": 0.5832815766334534,
      "810": -2.151348114013672,
      "811": -0.003209921298548579,
      "812": -0.8367061018943787,
      "813": 0.09470140933990479,
      "814": -3.752504825592041,
      "815": 1.9181911945343018,
      "816": -2.3367207050323486,
      "817": -2.470661163330078,
      "818": -0.31700193881988525,
      "819": -0.9814764261245728,
      "820": 2.081475257873535,
      "821": -0.26653924584388733,
      "822": 0.5458064079284668,
      "823": -3.1332950592041016,
      "824": -0.18076135218143463,
      "825": -1.851317048072815,
      "826": 0.7597126960754395,
      "827": 1.5877972841262817,
      "828": -1.5385091304779053,
      "829": 0.08631918579339981,
      "830": -1.2324726581573486,
      "831": 1.2221561670303345,
      "832": -2.042222261428833,
      "833": -3.1347978115081787,
      "834": 1.0286720991134644,
      "835": -1.969099760055542,
      "836": 4.824482440948486,
      "837": -0.8520401120185852,
      "838": -0.7188525199890137,
      "839": 0.891714334487915,
      "840": 0.048600517213344574,
      "841": -0.3604826033115387,
      "842": 1.5021958351135254,
      "843": -1.9730112552642822,
      "844": -0.7395942211151123,
      "845": 1.8448452949523926,
      "846": 4.101218223571777,
      "847": -4.122130870819092,
      "848": -3.942859649658203,
      "849": -0.3833516240119934,
      "850": 1.9940377473831177,
      "851": -3.59682559967041,
      "852": 1.4173626899719238,
      "853": 2.3583569526672363,
      "854": -1.3618378639221191,
      "855": -0.2529074549674988,
      "856": 1.1688456535339355,
      "857": 0.7721307277679443,
      "858": -2.024860143661499,
      "859": 1.1168913841247559,
      "860": -0.08792142570018768,
      "861": -5.196656227111816,
      "862": -3.7714757919311523,
      "863": 0.9220494627952576,
      "864": -3.8860559463500977,
      "865": 2.455115556716919,
      "866": 3.226550579071045,
      "867": 0.8722743391990662,
      "868": 4.404102325439453,
      "869": -2.7074835300445557,
      "870": -1.4815527200698853,
      "871": 4.412393093109131,
      "872": -1.925815463066101,
      "873": -0.37900254130363464,
      "874": -3.032449960708618,
      "875": 1.140064001083374,
      "876": 1.607852816581726,
      "877": 5.709492206573486,
      "878": -1.3204339742660522,
      "879": 3.4944007396698,
      "880": 3.2825489044189453,
      "881": 3.123784303665161,
      "882": -0.5962042808532715,
      "883": -3.0700864791870117,
      "884": 0.6646533012390137,
      "885": 2.885500192642212,
      "886": -1.0187429189682007,
      "887": -5.088860511779785,
      "888": 0.6914408802986145,
      "889": -0.4109281301498413,
      "890": -1.551574945449829,
      "891": -1.1869832277297974,
      "892": 0.6624759435653687,
      "893": 0.31701555848121643,
      "894": -3.6156649589538574,
      "895": 2.512631416320801,
      "896": -2.3796842098236084,
      "897": 0.5075070858001709,
      "898": -4.5564284324646,
      "899": -0.049318213015794754,
      "900": -3.9427647590637207,
      "901": 4.225297451019287,
      "902": -1.8611899614334106,
      "903": -2.8997159004211426,
      "904": 0.6162397265434265,
      "905": 0.041868750005960464,
      "906": 3.7482759952545166,
      "907": 0.3137795031070709,
      "908": 4.3962225914001465,
      "909": -3.4484095573425293,
      "910": -4.394545078277588,
      "911": 7.871309280395508,
      "912": 1.1291550397872925,
      "913": -1.3988409042358398,
      "914": 2.7972192764282227,
      "915": -0.4536552131175995,
      "916": -0.44490885734558105,
      "917": 3.681161880493164,
      "918": 0.7161338329315186,
      "919": 1.8507481813430786,
      "920": -2.6011908054351807,
      "921": -2.114955425262451,
      "922": 2.7988603115081787,
      "923": 0.4703769385814667,
      "924": -1.2706199884414673,
      "925": -0.20172491669654846,
      "926": 1.6331713199615479,
      "927": 0.15163272619247437,
      "928": -0.18184487521648407,
      "929": 3.1797499656677246,
      "930": 1.481804609298706,
      "931": 1.9383559226989746,
      "932": -2.180920362472534,
      "933": -1.0440970659255981,
      "934": -0.34872233867645264,
      "935": 2.861769437789917,
      "936": 0.20140355825424194,
      "937": 0.3356822729110718,
      "938": 0.1313900202512741,
      "939": 0.2139878123998642,
      "940": 0.28015920519828796,
      "941": 1.0800038576126099,
      "942": -1.1481680870056152,
      "943": 3.3528826236724854,
      "944": -1.4226053953170776,
      "945": -0.8745781779289246,
      "946": -4.298731803894043,
      "947": 0.8078451752662659,
      "948": -1.4616388082504272,
      "949": -3.60396409034729,
      "950": -0.722008466720581,
      "951": -1.1826353073120117,
      "952": 0.3303751051425934,
      "953": -0.27183809876441956,
      "954": 0.03280675783753395,
      "955": 1.1005686521530151,
      "956": 1.160115122795105,
      "957": -2.7402961254119873,
      "958": 2.195774793624878,
      "959": 5.252153396606445,
      "960": 0.5450438857078552,
      "961": -0.9800329208374023,
      "962": 0.21691548824310303,
      "963": -0.3346422612667084,
      "964": 0.41345512866973877,
      "965": 0.35276567935943604,
      "966": 5.013113975524902,
      "967": -0.1914921998977661,
      "968": -5.595893383026123,
      "969": 0.31079980731010437,
      "970": 0.6214781403541565,
      "971": 1.2274854183197021,
      "972": 3.779977321624756,
      "973": -1.1294488906860352,
      "974": 1.0894100666046143,
      "975": -4.25244140625,
      "976": 0.5343230366706848,
      "977": 1.5347250699996948,
      "978": 2.5724611282348633,
      "979": -2.6203079223632812,
      "980": -0.4492489695549011,
      "981": 3.734977960586548,
      "982": -1.8065975904464722,
      "983": 1.4390329122543335,
      "984": 1.348449945449829,
      "985": 1.2578353881835938,
      "986": 2.430720090866089,
      "987": 4.061803817749023,
      "988": -1.0187907218933105,
      "989": 1.0780500173568726,
      "990": 5.7491655349731445,
      "991": 0.1137491911649704,
      "992": -4.753663539886475,
      "993": 0.7347490787506104,
      "994": -2.4684031009674072,
      "995": 0.3837990462779999,
      "996": -7.933225631713867,
      "997": 0.4015680253505707,
      "998": -5.975985527038574,
      "999": -0.8161225318908691,
      "1000": 3.231029748916626,
      "1001": -11.216314315795898,
      "1002": -1.764122724533081,
      "1003": 6.8582987785339355,
      "1004": 1.72034752368927,
      "1005": 0.52840256690979,
      "1006": 6.8472137451171875,
      "1007": -4.2504167556762695,
      "1008": 4.915529727935791,
      "1009": 0.8507426381111145,
      "1010": -1.6137585639953613,
      "1011": 13.261818885803223,
      "1012": -1.5840818881988525,
      "1013": -1.1278661489486694,
      "1014": -5.573453903198242,
      "1015": -11.85232162475586,
      "1016": 2.9097795486450195,
      "1017": -0.7274527549743652,
      "1018": -9.709681510925293,
      "1019": 3.27828311920166,
      "1020": -4.52643346786499,
      "1021": 6.269416809082031,
      "1022": -6.435365200042725,
      "1023": -4.447508335113525,
      "1024": 3.88531494140625,
      "1025": 6.408718109130859,
      "1026": -5.0728631019592285,
      "1027": -5.942281246185303,
      "1028": -0.3854066729545593,
      "1029": -4.164498329162598,
      "1030": -0.6690122485160828,
      "1031": 2.3604390621185303,
      "1032": 6.372013568878174,
      "1033": 3.791344165802002,
      "1034": -0.8387168645858765,
      "1035": 0.577118992805481,
      "1036": -0.6803509593009949,
      "1037": 1.837965488433838,
      "1038": -1.1142706871032715,
      "1039": -1.0650348663330078,
      "1040": 0.2859302759170532,
      "1041": 2.095792055130005,
      "1042": 0.9614036083221436,
      "1043": -3.0584936141967773,
      "1044": 2.842175006866455,
      "1045": 1.2819982767105103,
      "1046": 2.6247501373291016,
      "1047": -5.246499538421631,
      "1048": 1.504125714302063,
      "1049": -5.528676509857178,
      "1050": 0.6317787170410156,
      "1051": -1.2587556838989258,
      "1052": -1.1989034414291382,
      "1053": 2.0994479656219482,
      "1054": 0.28830471634864807,
      "1055": -1.0627187490463257,
      "1056": 0.3687661588191986,
      "1057": -0.9142020344734192,
      "1058": -0.37817075848579407,
      "1059": -2.749472141265869,
      "1060": -0.23011836409568787,
      "1061": 4.709763050079346,
      "1062": -1.6627123355865479,
      "1063": -1.472657561302185,
      "1064": -0.6265880465507507,
      "1065": 0.47082048654556274,
      "1066": -3.6393675804138184,
      "1067": 0.8966372609138489,
      "1068": -4.697634220123291,
      "1069": 4.696203231811523,
      "1070": -4.25601863861084,
      "1071": 2.673476219177246,
      "1072": 4.081551551818848,
      "1073": -2.043335437774658,
      "1074": 4.470739841461182,
      "1075": 2.197509765625,
      "1076": -1.55807626247406,
      "1077": 3.4687039852142334,
      "1078": -0.9306425452232361,
      "1079": -1.3118175268173218,
      "1080": 2.4591426849365234,
      "1081": -0.5133904814720154,
      "1082": 2.7070329189300537,
      "1083": -0.011461466550827026,
      "1084": -0.49830323457717896,
      "1085": 2.491424083709717,
      "1086": -12.898130416870117,
      "1087": -2.4115371704101562,
      "1088": 0.17685240507125854,
      "1089": -3.832195281982422,
      "1090": -3.0150043964385986,
      "1091": 2.908771276473999,
      "1092": 2.5559778213500977,
      "1093": 7.657125473022461,
      "1094": 0.8300998210906982,
      "1095": -9.586260795593262,
      "1096": -9.508647918701172,
      "1097": 3.2032980918884277,
      "1098": -2.5427584648132324,
      "1099": -4.470643043518066,
      "1100": 12.586143493652344,
      "1101": -2.204246759414673,
      "1102": -1.465948462486267,
      "1103": -1.705105185508728,
      "1104": -1.303410291671753,
      "1105": -4.710226058959961,
      "1106": 0.3074610233306885,
      "1107": -1.229683518409729,
      "1108": 9.893301963806152,
      "1109": -17.13611602783203,
      "1110": -2.4208147525787354,
      "1111": 10.164597511291504,
      "1112": -7.440595626831055,
      "1113": -0.2707176208496094,
      "1114": 0.4811500310897827,
      "1115": -7.9373040199279785,
      "1116": 5.763878345489502,
      "1117": -6.516716957092285,
      "1118": 3.355966806411743,
      "1119": -2.525750160217285,
      "1120": 2.6288347244262695,
      "1121": -6.830806255340576,
      "1122": -4.7338762283325195,
      "1123": -9.03250789642334,
      "1124": -4.630293369293213,
      "1125": -2.5887415409088135,
      "1126": -13.134023666381836,
      "1127": -0.2049451619386673,
      "1128": -2.0569493770599365,
      "1129": 4.280005931854248,
      "1130": 1.619862675666809,
      "1131": 1.4982078075408936,
      "1132": 2.0150673389434814,
      "1133": 1.379896640777588,
      "1134": 0.3844238519668579,
      "1135": -1.3210886716842651,
      "1136": 1.3581485748291016,
      "1137": -3.1039958000183105,
      "1138": -5.056815147399902,
      "1139": 0.9181771278381348,
      "1140": -3.365347146987915,
      "1141": 0.950708270072937,
      "1142": 0.9340890049934387,
      "1143": 4.494753360748291,
      "1144": 0.7230618000030518,
      "1145": 0.7122358679771423,
      "1146": -3.1280808448791504,
      "1147": 1.449627161026001,
      "1148": 1.5701707601547241,
      "1149": -1.4440124034881592,
      "1150": 1.183626413345337,
      "1151": -4.9154157638549805,
      "1152": 0.7113157510757446,
      "1153": -1.0302629470825195,
      "1154": 4.440033435821533,
      "1155": 4.414525508880615,
      "1156": 1.0426133871078491,
      "1157": 5.511577129364014,
      "1158": -3.0903263092041016,
      "1159": 0.9706199169158936,
      "1160": 8.770703315734863,
      "1161": -1.131626844406128,
      "1162": 7.334864139556885,
      "1163": -10.280682563781738,
      "1164": -1.3309733867645264,
      "1165": -2.5039055347442627,
      "1166": 5.157837867736816,
      "1167": -1.578629970550537,
      "1168": -3.2045559883117676,
      "1169": 2.822375535964966,
      "1170": -1.5360809564590454,
      "1171": 0.201104536652565,
      "1172": 6.46137809753418,
      "1173": 5.723283767700195,
      "1174": 0.3465568423271179,
      "1175": -4.413555145263672,
      "1176": -1.4153050184249878,
      "1177": 3.6842539310455322,
      "1178": -2.325239658355713,
      "1179": -5.6022539138793945,
      "1180": 1.2280594110488892,
      "1181": 2.2383275032043457,
      "1182": -0.6529137492179871,
      "1183": 5.78320837020874,
      "1184": -1.4658831357955933,
      "1185": 0.21991324424743652,
      "1186": 2.149411201477051,
      "1187": 1.7997803688049316,
      "1188": 1.4017609357833862,
      "1189": 0.560235857963562,
      "1190": -0.15283392369747162,
      "1191": -2.3181145191192627,
      "1192": -2.5826754570007324,
      "1193": -1.5365909337997437,
      "1194": 1.855095386505127,
      "1195": 0.1859590858221054,
      "1196": -3.616454601287842,
      "1197": -1.762305498123169,
      "1198": 0.19171656668186188,
      "1199": -1.0856621265411377,
      "1200": -6.91984224319458,
      "1201": -3.970308780670166,
      "1202": -2.3862621784210205,
      "1203": 0.33310818672180176,
      "1204": -1.8221116065979004,
      "1205": -4.659014701843262,
      "1206": -4.681987285614014,
      "1207": -2.3307788372039795,
      "1208": -0.40381860733032227,
      "1209": -6.2566142082214355,
      "1210": -2.74415922164917,
      "1211": 0.9061034321784973,
      "1212": -0.6868297457695007,
      "1213": 0.4209589660167694,
      "1214": -4.161724090576172,
      "1215": 6.6758317947387695,
      "1216": -2.5106027126312256,
      "1217": 2.496302366256714,
      "1218": -1.9579883813858032,
      "1219": -0.8518020510673523,
      "1220": 0.7282342910766602,
      "1221": -4.029499530792236,
      "1222": 7.675024032592773,
      "1223": 0.3332900404930115,
      "1224": -10.190110206604004,
      "1225": 7.624921798706055,
      "1226": -5.3291544914245605,
      "1227": 10.1647310256958,
      "1228": 3.6126656532287598,
      "1229": 6.962149620056152,
      "1230": -0.7691500186920166,
      "1231": -1.387926697731018,
      "1232": -12.456489562988281,
      "1233": -10.919119834899902,
      "1234": -12.852298736572266,
      "1235": -10.211408615112305,
      "1236": -3.382767677307129,
      "1237": -4.011466979980469,
      "1238": -9.400313377380371,
      "1239": -13.835886001586914,
      "1240": -0.5849865078926086,
      "1241": 8.788293838500977,
      "1242": 13.941386222839355,
      "1243": 3.140237331390381,
      "1244": 8.015786170959473,
      "1245": 6.183779239654541,
      "1246": 2.6015408039093018,
      "1247": 3.6504831314086914,
      "1248": 14.470471382141113,
      "1249": -3.0910820960998535,
      "1250": 4.3297953605651855,
      "1251": -5.231266498565674,
      "1252": -4.203989028930664,
      "1253": -5.730799198150635,
      "1254": 11.95302677154541,
      "1255": -2.490811347961426,
      "1256": -4.669602394104004,
      "1257": -7.0250444412231445,
      "1258": -2.7334272861480713,
      "1259": -7.289022922515869,
      "1260": 7.7124481201171875,
      "1261": -7.079644680023193,
      "1262": -7.029898643493652,
      "1263": 18.790197372436523,
      "1264": 2.9626286029815674,
      "1265": 1.8793096542358398,
      "1266": 1.6232391595840454,
      "1267": 13.702627182006836,
      "1268": -7.683109283447266,
      "1269": 1.824267029762268,
      "1270": 10.701271057128906,
      "1271": 3.8840651512145996,
      "1272": -1.3523234128952026,
      "1273": 0.7228791117668152,
      "1274": -6.331170082092285,
      "1275": -1.9275755882263184,
      "1276": -0.9302442073822021,
      "1277": 10.205949783325195,
      "1278": -5.198551654815674,
      "1279": 4.566944599151611,
      "1280": 8.653616905212402,
      "1281": -1.0371735095977783,
      "1282": -9.149867057800293,
      "1283": -10.532394409179688,
      "1284": 1.7376141548156738,
      "1285": 7.6827921867370605,
      "1286": -2.052051067352295,
      "1287": -0.24401181936264038,
      "1288": 6.273273468017578,
      "1289": -9.790939331054688,
      "1290": 10.485760688781738,
      "1291": 5.35985803604126,
      "1292": 5.809093952178955,
      "1293": 8.263300895690918,
      "1294": -14.393006324768066,
      "1295": 7.090008735656738,
      "1296": -1.5215697288513184,
      "1297": -0.5483737587928772,
      "1298": 6.870397567749023,
      "1299": 5.575103282928467,
      "1300": 0.7933264374732971,
      "1301": 1.1141643524169922,
      "1302": -8.553377151489258,
      "1303": 3.932152271270752,
      "1304": -8.410656929016113,
      "1305": -2.460719108581543,
      "1306": 2.5493967533111572,
      "1307": 2.150968313217163,
      "1308": -6.06426477432251,
      "1309": 11.508999824523926,
      "1310": -4.000204086303711,
      "1311": -2.5015552043914795,
      "1312": 6.410869121551514,
      "1313": 1.1147218942642212,
      "1314": 3.607747793197632,
      "1315": -1.3501933813095093,
      "1316": 1.213813304901123,
      "1317": 3.4685590267181396,
      "1318": 2.4417288303375244,
      "1319": -2.982975482940674,
      "1320": -2.2321391105651855,
      "1321": -2.739974021911621,
      "1322": -3.1939034461975098,
      "1323": -2.489572525024414,
      "1324": 6.755039215087891,
      "1325": -0.26590701937675476,
      "1326": -1.1592563390731812,
      "1327": -4.238968849182129,
      "1328": 1.8050307035446167,
      "1329": -4.313774108886719,
      "1330": -9.067951202392578,
      "1331": -1.1773085594177246,
      "1332": 3.8628358840942383,
      "1333": -0.22389517724514008,
      "1334": 0.4889724850654602,
      "1335": -0.942543625831604,
      "1336": -4.13338565826416,
      "1337": 8.140392303466797,
      "1338": 0.7622395157814026,
      "1339": 6.922372817993164,
      "1340": -1.3030879497528076,
      "1341": -1.2526135444641113,
      "1342": 0.24908088147640228,
      "1343": -3.2046284675598145,
      "1344": -1.6282474994659424,
      "1345": 6.334753513336182,
      "1346": 3.1996524333953857,
      "1347": 2.4405689239501953,
      "1348": 0.05147479847073555,
      "1349": -2.7891340255737305,
      "1350": -1.135584831237793,
      "1351": -3.9057235717773438,
      "1352": 4.346123695373535,
      "1353": -4.606986045837402,
      "1354": 0.5600146055221558,
      "1355": -0.09012438356876373,
      "1356": 0.9834603667259216,
      "1357": -1.3119008541107178,
      "1358": 2.1325907707214355,
      "1359": 0.31416019797325134,
      "1360": -1.27090585231781,
      "1361": -0.6859675645828247,
      "1362": -2.403998374938965,
      "1363": 3.4200332164764404,
      "1364": 9.548879623413086,
      "1365": 0.4662715196609497,
      "1366": -1.2456185817718506,
      "1367": 1.3812813758850098,
      "1368": 3.651625156402588,
      "1369": -3.032708168029785,
      "1370": -0.24246235191822052,
      "1371": 0.32537832856178284,
      "1372": 3.2810957431793213,
      "1373": 1.2218916416168213,
      "1374": -0.40032219886779785,
      "1375": 2.5899341106414795,
      "1376": -1.4173548221588135,
      "1377": -5.95729398727417,
      "1378": 1.4057718515396118,
      "1379": 1.6761409044265747,
      "1380": 6.300452709197998,
      "1381": -1.546951413154602,
      "1382": 2.210618495941162,
      "1383": 0.8387991786003113,
      "1384": 2.169597864151001,
      "1385": 2.7820489406585693,
      "1386": -1.7520544528961182,
      "1387": -0.9971131086349487,
      "1388": 5.915212154388428,
      "1389": 0.8811826705932617,
      "1390": -1.0480563640594482,
      "1391": -1.4820549488067627,
      "1392": 3.5049705505371094,
      "1393": 3.352454662322998,
      "1394": -0.02350510098040104,
      "1395": -1.9715832471847534,
      "1396": 0.11193099617958069,
      "1397": -0.0017676189308986068,
      "1398": -0.9743669629096985,
      "1399": 0.581328272819519,
      "1400": -7.138282775878906,
      "1401": -0.8740110397338867,
      "1402": 2.211977958679199,
      "1403": -2.4166431427001953,
      "1404": -7.9651055335998535,
      "1405": 3.440230131149292,
      "1406": -1.0752334594726562,
      "1407": 2.336420774459839,
      "1408": -1.7608003616333008,
      "1409": 0.7076624631881714,
      "1410": -15.508508682250977,
      "1411": 5.167161464691162,
      "1412": -9.179676055908203,
      "1413": -1.7378462553024292,
      "1414": -7.195311069488525,
      "1415": 0.33517569303512573,
      "1416": -10.580381393432617,
      "1417": 4.263392448425293,
      "1418": 7.1855669021606445,
      "1419": -8.439730644226074,
      "1420": 5.95648193359375,
      "1421": 4.815268516540527,
      "1422": 0.24247072637081146,
      "1423": -4.049234867095947,
      "1424": -7.839777946472168,
      "1425": -10.817656517028809,
      "1426": 12.45905590057373,
      "1427": -2.589132308959961,
      "1428": -1.1664963960647583,
      "1429": 9.943460464477539,
      "1430": -3.7191953659057617,
      "1431": 5.68422269821167,
      "1432": 1.205815315246582,
      "1433": 0.2555856704711914,
      "1434": 11.201471328735352,
      "1435": -8.54290771484375,
      "1436": 1.9038615226745605,
      "1437": 14.625734329223633,
      "1438": -6.2561469078063965,
      "1439": 14.211420059204102,
      "1440": 4.905759811401367,
      "1441": 4.4263691902160645,
      "1442": 2.3130757808685303,
      "1443": -8.398785591125488,
      "1444": 3.9584426879882812,
      "1445": -7.530393600463867,
      "1446": -13.378570556640625,
      "1447": 11.745685577392578,
      "1448": 5.24483060836792,
      "1449": -10.61356258392334,
      "1450": -3.054520606994629,
      "1451": 6.883960247039795,
      "1452": 1.9635183811187744,
      "1453": 3.9656982421875,
      "1454": -3.0764544010162354,
      "1455": -6.596768379211426,
      "1456": 9.872264862060547,
      "1457": 0.09963470697402954,
      "1458": 0.9862524271011353,
      "1459": -1.9169285297393799,
      "1460": -2.191751003265381,
      "1461": 2.4021918773651123,
      "1462": 0.5969128608703613,
      "1463": -0.7499212622642517,
      "1464": 0.03719557821750641,
      "1465": 3.0328688621520996,
      "1466": 0.2260102927684784,
      "1467": -0.7270593643188477,
      "1468": -3.873244285583496,
      "1469": 0.4734812378883362,
      "1470": 0.9259166717529297,
      "1471": -0.706017255783081,
      "1472": -2.878591537475586,
      "1473": 2.129098653793335,
      "1474": 2.522402763366699,
      "1475": -3.134089231491089,
      "1476": -2.7633895874023438,
      "1477": 1.3339077234268188,
      "1478": 0.33721816539764404,
      "1479": 1.0460261106491089,
      "1480": -0.49277815222740173,
      "1481": -1.2427271604537964,
      "1482": -0.10085023939609528,
      "1483": 0.07048581540584564,
      "1484": -0.9296731948852539,
      "1485": 0.366107314825058,
      "1486": 0.028213145211338997,
      "1487": 2.496706247329712,
      "1488": 2.4472687244415283,
      "1489": 0.0028686746954917908,
      "1490": -3.0384459495544434,
      "1491": 2.5816924571990967,
      "1492": 1.7124462127685547,
      "1493": 0.3226932883262634,
      "1494": -1.0326570272445679,
      "1495": -3.1619482040405273,
      "1496": 3.6026718616485596,
      "1497": 3.508209228515625,
      "1498": -1.4927862882614136,
      "1499": -0.4184570908546448,
      "1500": 1.5442326068878174,
      "1501": -0.42039400339126587,
      "1502": -4.321799278259277,
      "1503": -1.3378583192825317,
      "1504": -0.7838113307952881,
      "1505": 3.5703482627868652,
      "1506": -0.3974751830101013,
      "1507": 3.479238510131836,
      "1508": 1.2699637413024902,
      "1509": 1.1621229648590088,
      "1510": 1.4160481691360474,
      "1511": 2.280060291290283,
      "1512": -2.3866751194000244,
      "1513": -0.6795463562011719,
      "1514": -4.59403657913208,
      "1515": 7.445827484130859,
      "1516": -5.3127312660217285,
      "1517": -1.4098645448684692,
      "1518": -0.11394491791725159,
      "1519": 1.1795165538787842,
      "1520": 1.2452137470245361,
      "1521": 2.715327024459839,
      "1522": -0.8211826682090759,
      "1523": -0.36795684695243835,
      "1524": 0.49452075362205505,
      "1525": -3.127936601638794,
      "1526": 2.5019888877868652,
      "1527": -2.637810707092285,
      "1528": -0.25606077909469604,
      "1529": 2.5179691314697266,
      "1530": -2.262650966644287,
      "1531": -1.3902792930603027,
      "1532": 0.8731774687767029,
      "1533": 2.426909923553467,
      "1534": 0.49441492557525635,
      "1535": -1.384149193763733,
      "1536": 2.5658681392669678,
      "1537": 5.6879754066467285,
      "1538": -1.81260347366333,
      "1539": -0.22964459657669067,
      "1540": -3.084379196166992,
      "1541": -5.277930736541748,
      "1542": -0.37340348958969116,
      "1543": 0.09280754625797272,
      "1544": -0.32376936078071594,
      "1545": 1.6088616847991943,
      "1546": 2.7374446392059326,
      "1547": -2.621401071548462,
      "1548": 0.47285422682762146,
      "1549": 1.2779991626739502,
      "1550": -2.4109368324279785,
      "1551": -6.859911918640137,
      "1552": 10.433298110961914,
      "1553": -1.9422531127929688,
      "1554": 8.873031616210938,
      "1555": -6.347970008850098,
      "1556": 14.019247055053711,
      "1557": -14.363499641418457,
      "1558": -9.017337799072266,
      "1559": -7.514214515686035,
      "1560": -11.219040870666504,
      "1561": -7.1833815574646,
      "1562": 10.518256187438965,
      "1563": -3.2810206413269043,
      "1564": 3.7834012508392334,
      "1565": 0.814911425113678,
      "1566": 14.300516128540039,
      "1567": -0.30468881130218506,
      "1568": -6.403997898101807,
      "1569": -2.6287379264831543,
      "1570": 9.40362548828125,
      "1571": 5.880861282348633,
      "1572": -16.02305030822754,
      "1573": -1.9770441055297852,
      "1574": -6.678499221801758,
      "1575": -0.17971019446849823,
      "1576": -4.1634087562561035,
      "1577": -1.1841187477111816,
      "1578": 4.131224155426025,
      "1579": -1.827976942062378,
      "1580": 6.908397197723389,
      "1581": -10.537580490112305,
      "1582": -3.705444097518921,
      "1583": 16.7503662109375,
      "1584": 2.9496045112609863,
      "1585": 5.419083595275879,
      "1586": -1.770485520362854,
      "1587": 3.495678424835205,
      "1588": 7.685334205627441,
      "1589": -10.922977447509766,
      "1590": -11.789128303527832,
      "1591": -8.37232494354248,
      "1592": -2.0899198055267334,
      "1593": -1.5549728870391846,
      "1594": 4.017416000366211,
      "1595": 1.097590684890747,
      "1596": 12.18811321258545,
      "1597": 11.030970573425293,
      "1598": 7.690458297729492,
      "1599": -3.5902822017669678,
      "1600": -0.0994948297739029,
      "1601": -4.4960036277771,
      "1602": 8.031282424926758,
      "1603": -12.396002769470215,
      "1604": 2.0764219760894775,
      "1605": -0.25900164246559143,
      "1606": -6.473265647888184,
      "1607": 3.215212106704712,
      "1608": 0.35958147048950195,
      "1609": -6.291894912719727,
      "1610": 5.327799320220947,
      "1611": -8.253195762634277,
      "1612": 3.112295389175415,
      "1613": -7.063234806060791,
      "1614": 2.5556795597076416,
      "1615": -0.7813043594360352,
      "1616": 1.9140655994415283,
      "1617": 12.794768333435059,
      "1618": 1.0660723447799683,
      "1619": -0.45844006538391113,
      "1620": -10.185946464538574,
      "1621": -8.428648948669434,
      "1622": -3.651407480239868,
      "1623": 6.200501441955566,
      "1624": -2.4533631801605225,
      "1625": -2.770900011062622,
      "1626": 3.91055965423584,
      "1627": -5.405782699584961,
      "1628": -9.795394897460938,
      "1629": -3.049669027328491,
      "1630": 7.43281364440918,
      "1631": 12.170402526855469,
      "1632": 3.742619514465332,
      "1633": -4.6399245262146,
      "1634": 2.10646915435791,
      "1635": 3.7048282623291016,
      "1636": -10.057839393615723,
      "1637": 7.339959144592285,
      "1638": -14.61208724975586,
      "1639": -4.944675445556641,
      "1640": 1.0421513319015503,
      "1641": -4.074979782104492,
      "1642": 4.180322647094727,
      "1643": -8.620508193969727,
      "1644": 15.817641258239746,
      "1645": 6.070928573608398,
      "1646": 7.102884769439697,
      "1647": -1.2489076852798462,
      "1648": -1.9249300956726074,
      "1649": 7.584981918334961,
      "1650": 3.8180065155029297,
      "1651": -2.5530574321746826,
      "1652": 3.269965648651123,
      "1653": 1.6208484172821045,
      "1654": 2.408109188079834,
      "1655": -16.73834800720215,
      "1656": -5.589687347412109,
      "1657": -3.8374156951904297,
      "1658": -3.7809858322143555,
      "1659": 2.4993324279785156,
      "1660": 0.5396365523338318,
      "1661": 1.0357547998428345,
      "1662": 4.549301624298096,
      "1663": 0.38318684697151184,
      "1664": 3.6286051273345947,
      "1665": 6.448489665985107,
      "1666": -0.2598010301589966,
      "1667": 10.35073184967041,
      "1668": -5.420806884765625,
      "1669": -0.913968563079834,
      "1670": 1.1461181640625,
      "1671": -0.6622873544692993,
      "1672": 2.949090003967285,
      "1673": 6.201800346374512,
      "1674": 5.618469715118408,
      "1675": -1.8504266738891602,
      "1676": 3.555379867553711,
      "1677": 0.4896898865699768,
      "1678": -0.7434594631195068,
      "1679": 3.9566938877105713,
      "1680": -8.253662109375,
      "1681": -7.737766265869141,
      "1682": 4.088287830352783,
      "1683": 4.287600994110107,
      "1684": -0.6621588468551636,
      "1685": -8.146218299865723,
      "1686": 1.2501977682113647,
      "1687": 4.139725208282471,
      "1688": -7.702314376831055,
      "1689": -1.2845041751861572,
      "1690": 3.3181328773498535,
      "1691": -0.6816785335540771,
      "1692": -8.557147026062012,
      "1693": -3.055511951446533,
      "1694": -20.778358459472656,
      "1695": 6.989953994750977,
      "1696": -2.585411787033081,
      "1697": -4.124488830566406,
      "1698": -4.188997745513916,
      "1699": 6.517664909362793,
      "1700": -12.641276359558105,
      "1701": -10.205108642578125,
      "1702": 4.464107513427734,
      "1703": 12.14531421661377,
      "1704": 5.343020915985107,
      "1705": -4.479322910308838,
      "1706": 8.615623474121094,
      "1707": -2.200810194015503,
      "1708": 14.687477111816406,
      "1709": 9.111442565917969,
      "1710": -16.11945343017578,
      "1711": 20.081146240234375,
      "1712": 4.667006969451904,
      "1713": 1.5339174270629883,
      "1714": 0.22960448265075684,
      "1715": -17.29393196105957,
      "1716": 4.7931809425354,
      "1717": 1.717963457107544,
      "1718": 4.480185508728027,
      "1719": 7.286555290222168,
      "1720": -5.547519683837891,
      "1721": -3.324357271194458,
      "1722": 1.6983026266098022,
      "1723": -3.903468132019043,
      "1724": 6.013490676879883,
      "1725": 1.744144082069397,
      "1726": 8.851877212524414,
      "1727": -1.9327025413513184,
      "1728": -18.883209228515625,
      "1729": 0.6571852564811707,
      "1730": -4.057593822479248,
      "1731": -5.576893329620361,
      "1732": 2.7324931621551514,
      "1733": -7.963551998138428,
      "1734": -14.211640357971191,
      "1735": -4.866933822631836,
      "1736": 12.854362487792969,
      "1737": 6.595242023468018,
      "1738": 6.508631229400635,
      "1739": -9.184186935424805,
      "1740": -3.648752212524414,
      "1741": -13.063411712646484,
      "1742": 2.4966020584106445,
      "1743": -15.798121452331543,
      "1744": -5.239840030670166,
      "1745": -8.719932556152344,
      "1746": 11.454846382141113,
      "1747": -0.9190053343772888,
      "1748": -6.964282512664795,
      "1749": 10.863036155700684,
      "1750": 10.036057472229004,
      "1751": 6.051735877990723,
      "1752": -2.1938347816467285,
      "1753": 2.947481155395508,
      "1754": -8.112337112426758,
      "1755": 19.125925064086914,
      "1756": 3.7707433700561523,
      "1757": -8.385004043579102,
      "1758": 7.69902229309082,
      "1759": 10.51409912109375,
      "1760": -3.6905739307403564,
      "1761": 3.196347951889038,
      "1762": -3.450828790664673,
      "1763": 6.687807559967041,
      "1764": 8.07418155670166,
      "1765": -2.1288487911224365,
      "1766": -2.631425380706787,
      "1767": -9.774130821228027,
      "1768": 8.846311569213867,
      "1769": 19.64272117614746,
      "1770": 10.671553611755371,
      "1771": -1.2059378623962402,
      "1772": -5.277670860290527,
      "1773": 1.1070232391357422,
      "1774": 14.791961669921875,
      "1775": -17.161296844482422,
      "1776": 2.853363275527954,
      "1777": -8.466043472290039,
      "1778": -6.971061706542969,
      "1779": 33.33684158325195,
      "1780": -7.713820934295654,
      "1781": -12.37859058380127,
      "1782": 7.929133892059326,
      "1783": 5.24826192855835,
      "1784": -5.640465259552002,
      "1785": -5.405969619750977,
      "1786": 5.5030694007873535,
      "1787": 0.08485710620880127,
      "1788": -1.100684642791748,
      "1789": -2.216132879257202,
      "1790": 2.195204734802246,
      "1791": 8.805949211120605,
      "1792": -1.4907563924789429,
      "1793": 3.4217710494995117,
      "1794": -2.270061492919922,
      "1795": 3.0581889152526855,
      "1796": -12.968698501586914,
      "1797": 7.666343688964844,
      "1798": -5.233731269836426,
      "1799": -3.409836530685425,
      "1800": 9.438558578491211,
      "1801": 3.3035123348236084,
      "1802": -4.9358367919921875,
      "1803": -1.382158875465393,
      "1804": -0.10748020559549332,
      "1805": 0.6186537742614746,
      "1806": 12.05363655090332,
      "1807": -12.553642272949219,
      "1808": 3.987826347351074,
      "1809": -3.8030624389648438,
      "1810": 2.340336561203003,
      "1811": -2.7139835357666016,
      "1812": -4.058533668518066,
      "1813": 2.236600637435913,
      "1814": -0.9503207206726074,
      "1815": -0.7520564794540405,
      "1816": -4.469465732574463,
      "1817": 0.04009616747498512,
      "1818": -6.818478107452393,
      "1819": 6.9537200927734375,
      "1820": -5.527580738067627,
      "1821": 3.9140114784240723,
      "1822": -8.254349708557129,
      "1823": 2.8368966579437256,
      "1824": 1.960282325744629,
      "1825": 0.460060715675354,
      "1826": 1.3437671661376953,
      "1827": -1.4126036167144775,
      "1828": 8.397255897521973,
      "1829": -4.894978046417236,
      "1830": -6.747271537780762,
      "1831": 6.570917129516602,
      "1832": -0.8918179869651794,
      "1833": -10.827818870544434,
      "1834": 17.732868194580078,
      "1835": 4.6488237380981445,
      "1836": 9.286699295043945,
      "1837": -10.239991188049316,
      "1838": 13.058167457580566,
      "1839": -12.45820426940918,
      "1840": 3.47831392288208,
      "1841": -14.987621307373047,
      "1842": -1.570848822593689,
      "1843": 9.746715545654297,
      "1844": 2.5486207008361816,
      "1845": 9.815914154052734,
      "1846": -18.602333068847656,
      "1847": -10.735212326049805,
      "1848": -1.7177097797393799,
      "1849": 14.230694770812988,
      "1850": 12.09025764465332,
      "1851": -3.3047728538513184,
      "1852": 3.9883501529693604,
      "1853": -10.266115188598633,
      "1854": 13.978558540344238,
      "1855": 4.871702194213867,
      "1856": -4.944922924041748,
      "1857": -11.067094802856445,
      "1858": -3.3068575859069824,
      "1859": -12.182027816772461,
      "1860": 13.131869316101074,
      "1861": -10.572021484375,
      "1862": 4.080221176147461,
      "1863": 5.273852348327637,
      "1864": -1.7044568061828613,
      "1865": -10.117204666137695,
      "1866": 17.16864013671875,
      "1867": -6.695765018463135,
      "1868": -7.237541675567627,
      "1869": -7.463476181030273,
      "1870": 0.4670640230178833,
      "1871": -4.927578449249268,
      "1872": -6.117340564727783,
      "1873": -1.3789291381835938,
      "1874": 2.7556192874908447,
      "1875": -1.610636591911316,
      "1876": -3.306730031967163,
      "1877": 7.706284523010254,
      "1878": -12.305910110473633,
      "1879": 7.551977157592773,
      "1880": -2.9547653198242188,
      "1881": 7.729723930358887,
      "1882": -6.113807201385498,
      "1883": 4.999701499938965,
      "1884": -2.510364532470703,
      "1885": -1.3550739288330078,
      "1886": -5.341386795043945,
      "1887": -0.03145104646682739,
      "1888": 0.532089352607727,
      "1889": -7.23960542678833,
      "1890": 0.47289904952049255,
      "1891": -0.4618597626686096,
      "1892": 7.742359161376953,
      "1893": -4.758894443511963,
      "1894": -6.889972686767578,
      "1895": -1.9315232038497925,
      "1896": -0.10771352797746658,
      "1897": 1.1615686416625977,
      "1898": -7.717157363891602,
      "1899": 8.63980770111084,
      "1900": 4.360081195831299,
      "1901": 0.8861465454101562,
      "1902": 0.6669340133666992,
      "1903": -1.6011130809783936,
      "1904": -9.269221305847168,
      "1905": -1.2377023696899414,
      "1906": 3.1396303176879883,
      "1907": 10.875686645507812,
      "1908": -8.788780212402344,
      "1909": -5.218649387359619,
      "1910": 8.660365104675293,
      "1911": -5.470964431762695,
      "1912": -3.4095137119293213,
      "1913": -0.7878085374832153,
      "1914": -3.4282867908477783,
      "1915": 6.221978187561035,
      "1916": -3.679292678833008,
      "1917": -0.8560646176338196,
      "1918": -5.726289749145508,
      "1919": -3.512371063232422,
      "1920": -0.8734219074249268,
      "1921": -5.669750690460205,
      "1922": -5.698728561401367,
      "1923": 0.5937275290489197,
      "1924": -8.646196365356445,
      "1925": -4.9529595375061035,
      "1926": -1.511995792388916,
      "1927": -1.9693684577941895,
      "1928": -3.50130033493042,
      "1929": 2.5029754638671875,
      "1930": -2.2451696395874023,
      "1931": -0.2360486388206482,
      "1932": 3.1515591144561768,
      "1933": 4.828056812286377,
      "1934": 2.6620285511016846,
      "1935": 1.4004888534545898,
      "1936": 3.0008604526519775,
      "1937": -0.8988306522369385,
      "1938": 2.250763177871704,
      "1939": -3.340796947479248,
      "1940": 0.42920786142349243,
      "1941": 2.630849599838257,
      "1942": 2.9684700965881348,
      "1943": 0.8138025403022766,
      "1944": 4.1667656898498535,
      "1945": 1.1544209718704224,
      "1946": -5.030314922332764,
      "1947": -2.371464729309082,
      "1948": 1.6659854650497437,
      "1949": 2.6159374713897705,
      "1950": 3.0430212020874023,
      "1951": -1.2391566038131714,
      "1952": 0.9619405269622803,
      "1953": -2.0814170837402344,
      "1954": -1.8262629508972168,
      "1955": -0.8118562698364258,
      "1956": 2.456463098526001,
      "1957": 2.9254088401794434,
      "1958": 2.1804423332214355,
      "1959": 0.35886943340301514,
      "1960": -2.117204427719116,
      "1961": 3.0301589965820312,
      "1962": 6.043647289276123,
      "1963": 0.5798197388648987,
      "1964": -7.575141429901123,
      "1965": -2.132052183151245,
      "1966": 2.5290517807006836,
      "1967": 2.9574642181396484,
      "1968": 2.629260301589966,
      "1969": 5.931254863739014,
      "1970": -0.47182023525238037,
      "1971": -6.180326461791992,
      "1972": -1.9858301877975464,
      "1973": -8.076278686523438,
      "1974": -1.818994402885437,
      "1975": 2.485166311264038,
      "1976": -3.0040395259857178,
      "1977": -0.5343272686004639,
      "1978": -2.230963706970215,
      "1979": -3.6566593647003174,
      "1980": -0.3182748854160309,
      "1981": -2.2072067260742188,
      "1982": 3.4440929889678955,
      "1983": -2.3625988960266113,
      "1984": 1.2178555727005005,
      "1985": -1.181442379951477,
      "1986": 2.2997188568115234,
      "1987": -4.492182731628418,
      "1988": -1.9744035005569458,
      "1989": 1.5925790071487427,
      "1990": -1.3109157085418701,
      "1991": 0.9476453065872192,
      "1992": -4.01451301574707,
      "1993": 6.648462295532227,
      "1994": -0.5189597606658936,
      "1995": 3.1627721786499023,
      "1996": 2.4543888568878174,
      "1997": 4.344477653503418,
      "1998": -10.275452613830566,
      "1999": 3.610217809677124,
      "2000": 1.3712286949157715,
      "2001": 6.288634300231934,
      "2002": 1.943779706954956,
      "2003": -5.549214839935303,
      "2004": 3.487891912460327,
      "2005": 0.6552995443344116,
      "2006": 2.142162561416626,
      "2007": -4.931293964385986,
      "2008": -5.723643779754639,
      "2009": 2.9738638401031494,
      "2010": -2.1929075717926025,
      "2011": -0.6842477917671204,
      "2012": 1.1438030004501343,
      "2013": 2.4766035079956055,
      "2014": 4.041534423828125,
      "2015": -1.707863688468933,
      "2016": -7.002218246459961,
      "2017": 2.7024588584899902,
      "2018": -1.5397521257400513,
      "2019": -4.174677848815918,
      "2020": -0.47068560123443604,
      "2021": 2.3478283882141113,
      "2022": 0.7340627312660217,
      "2023": -5.239522457122803,
      "2024": 5.972372531890869,
      "2025": -1.835730791091919,
      "2026": 23.319372177124023,
      "2027": 4.885951519012451,
      "2028": 9.018148422241211,
      "2029": -4.765330791473389,
      "2030": -4.046150207519531,
      "2031": -1.7344340085983276,
      "2032": 2.0604708194732666,
      "2033": -11.622673988342285,
      "2034": -10.662753105163574,
      "2035": 2.0691370964050293,
      "2036": -1.8140299320220947,
      "2037": 15.496868133544922,
      "2038": 3.9988999366760254,
      "2039": -7.762289047241211,
      "2040": 2.7417726516723633,
      "2041": -2.2940659523010254,
      "2042": -1.115561604499817,
      "2043": 2.0269315242767334,
      "2044": 8.365239143371582,
      "2045": -0.20624791085720062,
      "2046": -6.687467098236084,
      "2047": -16.32714080810547,
      "2048": -0.4825563430786133,
      "2049": 14.161601066589355,
      "2050": -3.2267515659332275,
      "2051": 4.150721073150635,
      "2052": 2.415769338607788,
      "2053": -9.216578483581543,
      "2054": -0.22665293514728546,
      "2055": 0.11796438694000244,
      "2056": -1.4595319032669067,
      "2057": -10.804719924926758,
      "2058": -8.291378021240234,
      "2059": 2.236963987350464,
      "2060": 4.078732490539551,
      "2061": 12.135149955749512,
      "2062": 5.750051021575928,
      "2063": 11.318977355957031,
      "2064": -13.720519065856934,
      "2065": 2.215402603149414,
      "2066": 2.2342498302459717,
      "2067": -11.218498229980469,
      "2068": 1.345199465751648,
      "2069": -4.376495838165283,
      "2070": -13.138792037963867,
      "2071": 13.894716262817383,
      "2072": -5.331143856048584,
      "2073": 14.529253005981445,
      "2074": -5.109507083892822,
      "2075": 13.669002532958984,
      "2076": -26.14256477355957,
      "2077": -3.1740851402282715,
      "2078": -1.4029637575149536,
      "2079": 7.999492168426514,
      "2080": 3.66890811920166,
      "2081": 8.600580215454102,
      "2082": 8.118693351745605,
      "2083": -0.917931079864502,
      "2084": 4.836977481842041,
      "2085": -5.140665054321289,
      "2086": 6.7740044593811035,
      "2087": 13.319018363952637,
      "2088": 9.622384071350098,
      "2089": -10.936845779418945,
      "2090": -8.688362121582031,
      "2091": -3.8924055099487305,
      "2092": 5.051541328430176,
      "2093": 13.850194931030273,
      "2094": 7.476308822631836,
      "2095": -4.8986921310424805,
      "2096": 1.3246654272079468,
      "2097": -11.524771690368652,
      "2098": -13.062152862548828,
      "2099": -6.01788854598999,
      "2100": 2.4028751850128174,
      "2101": -1.6570249795913696,
      "2102": -4.78282356262207,
      "2103": -6.907902717590332,
      "2104": -1.028713345527649,
      "2105": -2.485907793045044,
      "2106": 22.648473739624023,
      "2107": -4.377912521362305,
      "2108": 2.952909469604492,
      "2109": 8.86734390258789,
      "2110": -1.8357640504837036,
      "2111": 3.642819881439209,
      "2112": 3.8258986473083496,
      "2113": 12.431468963623047,
      "2114": 15.057260513305664,
      "2115": -0.5821849703788757,
      "2116": -0.8929408192634583,
      "2117": -3.6123576164245605,
      "2118": 1.1211026906967163,
      "2119": 1.4490869045257568,
      "2120": 0.3736323416233063,
      "2121": 0.7844142317771912,
      "2122": 1.8366453647613525,
      "2123": -0.6843016743659973,
      "2124": 3.1266705989837646,
      "2125": 0.3428173363208771,
      "2126": -3.583871364593506,
      "2127": 0.39179494976997375,
      "2128": -0.8850081562995911,
      "2129": 0.017317788675427437,
      "2130": 0.37620702385902405,
      "2131": -2.402311325073242,
      "2132": -0.3628762364387512,
      "2133": -1.0316089391708374,
      "2134": -1.0877269506454468,
      "2135": 1.843002438545227,
      "2136": 1.4576352834701538,
      "2137": 0.14204183220863342,
      "2138": -0.5069097280502319,
      "2139": 0.6386947631835938,
      "2140": 0.91722571849823,
      "2141": 2.5732014179229736,
      "2142": 3.339352607727051,
      "2143": 3.7420852184295654,
      "2144": 0.9172163605690002,
      "2145": -1.3455781936645508,
      "2146": 1.619582176208496,
      "2147": 1.0788663625717163,
      "2148": -1.610826015472412,
      "2149": 2.420081615447998,
      "2150": -0.0003991076082456857,
      "2151": 0.9448322057723999,
      "2152": -0.7439296245574951,
      "2153": -2.1236445903778076,
      "2154": 0.3472609221935272,
      "2155": -0.6368519067764282,
      "2156": -0.8373329043388367,
      "2157": 0.05106769874691963,
      "2158": 1.0147196054458618,
      "2159": 0.9942371845245361,
      "2160": -0.044695280492305756,
      "2161": -0.624912679195404,
      "2162": -1.4613304138183594,
      "2163": -0.12625697255134583,
      "2164": 2.6593267917633057,
      "2165": 1.0351513624191284,
      "2166": -1.358319878578186,
      "2167": 0.05825630575418472,
      "2168": -1.5302854776382446,
      "2169": -3.066354751586914,
      "2170": -0.2955291271209717,
      "2171": 0.8576093316078186,
      "2172": -0.7043004631996155,
      "2173": 0.3163858950138092,
      "2174": 0.12712357938289642,
      "2175": 2.741816520690918,
      "2176": -1.6822439432144165,
      "2177": -0.9683489799499512,
      "2178": 1.8810211420059204,
      "2179": -0.8269467353820801,
      "2180": 2.4337100982666016,
      "2181": -0.20088700950145721,
      "2182": -2.3507325649261475,
      "2183": 0.8257807493209839,
      "2184": -0.9902528524398804,
      "2185": 0.09604847431182861,
      "2186": 1.646693229675293,
      "2187": -1.0177359580993652,
      "2188": -0.6044286489486694,
      "2189": 0.0783541277050972,
      "2190": -1.8697712421417236,
      "2191": 1.434856653213501,
      "2192": -0.8590764403343201,
      "2193": -0.37544962763786316,
      "2194": -0.9790148138999939,
      "2195": 0.14302025735378265,
      "2196": -1.519982933998108,
      "2197": 1.851696491241455,
      "2198": 4.810122489929199,
      "2199": -1.707962155342102,
      "2200": -1.5422149896621704,
      "2201": -0.1552470624446869,
      "2202": -0.7060117125511169,
      "2203": 1.0780720710754395,
      "2204": 1.9044480323791504,
      "2205": 0.8833008408546448,
      "2206": -0.09368447214365005,
      "2207": -1.2293972969055176,
      "2208": 1.8057788610458374,
      "2209": -0.379690945148468,
      "2210": 1.736435055732727,
      "2211": 0.48832178115844727,
      "2212": -0.4314422607421875,
      "2213": -0.09108993411064148,
      "2214": 0.5096750259399414,
      "2215": -0.29509350657463074,
      "2216": -0.7041419148445129,
      "2217": -0.3770623505115509,
      "2218": 0.026940325275063515,
      "2219": -0.8057428002357483,
      "2220": -0.005309961270540953,
      "2221": -0.8937497138977051,
      "2222": -0.40512731671333313,
      "2223": 0.38458240032196045,
      "2224": 0.5191836357116699,
      "2225": 0.20837831497192383,
      "2226": 0.7537906169891357,
      "2227": 0.5960887670516968,
      "2228": -0.16508129239082336,
      "2229": -0.46993768215179443,
      "2230": 0.221725732088089,
      "2231": 0.5732899904251099,
      "2232": -0.5856565833091736,
      "2233": -0.4229433834552765,
      "2234": 0.5392366647720337,
      "2235": 1.2794904708862305,
      "2236": -0.8506950736045837,
      "2237": 0.2750359773635864,
      "2238": -0.4280973970890045,
      "2239": 0.33568647503852844,
      "2240": -0.38177359104156494,
      "2241": -0.13838976621627808,
      "2242": 0.9777686595916748,
      "2243": -0.5470340251922607,
      "2244": 0.3577736020088196,
      "2245": 0.958327054977417,
      "2246": -1.1772772073745728,
      "2247": -0.07637718319892883,
      "2248": -0.13872265815734863,
      "2249": -0.14213551580905914,
      "2250": 1.0532732009887695,
      "2251": 0.931603193283081,
      "2252": 0.9309431314468384,
      "2253": -0.1065857857465744,
      "2254": -0.1667477786540985,
      "2255": -0.07232099771499634
    }
  },
  "hiddenLayers": [
    {
      "inputMatrix": {
        "rows": 20,
        "columns": 47,
        "weights": {
          "0": 0.05002506822347641,
          "1": 0.33177298307418823,
          "2": -0.7138642072677612,
          "3": -0.5126878023147583,
          "4": -1.3862627744674683,
          "5": -0.6960425972938538,
          "6": -1.301871418952942,
          "7": -1.3314459323883057,
          "8": 2.0526373386383057,
          "9": 0.1389096975326538,
          "10": -0.3963656723499298,
          "11": -1.523362636566162,
          "12": 1.9627866744995117,
          "13": 0.938762903213501,
          "14": -0.8792758584022522,
          "15": -0.6942387819290161,
          "16": -0.4755716025829315,
          "17": -2.9993321895599365,
          "18": -0.12604089081287384,
          "19": 2.2441132068634033,
          "20": 0.21603481471538544,
          "21": 1.0445103645324707,
          "22": -0.8300572633743286,
          "23": 0.8956771492958069,
          "24": 1.8029624223709106,
          "25": -0.19987903535366058,
          "26": 1.3344085216522217,
          "27": -0.0653943121433258,
          "28": -0.21221515536308289,
          "29": 1.730385422706604,
          "30": -2.730286121368408,
          "31": -1.1990214586257935,
          "32": -0.8199848532676697,
          "33": -2.154470920562744,
          "34": 0.4673863351345062,
          "35": -1.327918291091919,
          "36": 0.4408375322818756,
          "37": 1.958202600479126,
          "38": -0.36590316891670227,
          "39": -0.6549720764160156,
          "40": 0.5381252765655518,
          "41": 0.03322460874915123,
          "42": -0.34214723110198975,
          "43": 0.8800235390663147,
          "44": 2.4586355686187744,
          "45": 0.14618660509586334,
          "46": 0.46996575593948364,
          "47": 0.36666712164878845,
          "48": -0.17857272922992706,
          "49": -1.229137897491455,
          "50": 0.12669803202152252,
          "51": 0.6222091317176819,
          "52": -0.6052292585372925,
          "53": 1.0014801025390625,
          "54": -0.7951754331588745,
          "55": 1.6672331094741821,
          "56": -0.7135224938392639,
          "57": -0.6963644623756409,
          "58": -2.130070686340332,
          "59": -1.5808237791061401,
          "60": -0.4281807243824005,
          "61": -0.5975440144538879,
          "62": 1.112094521522522,
          "63": -0.9410805702209473,
          "64": 0.014676076360046864,
          "65": 0.2065323293209076,
          "66": -0.16345205903053284,
          "67": 1.4997918605804443,
          "68": -0.36598658561706543,
          "69": 0.10946305841207504,
          "70": 0.3823989927768707,
          "71": 1.7449922561645508,
          "72": 0.5970320105552673,
          "73": 1.5600413084030151,
          "74": -2.73152494430542,
          "75": -1.242161512374878,
          "76": 2.136387825012207,
          "77": 0.15438170731067657,
          "78": 1.4735819101333618,
          "79": 0.8630361557006836,
          "80": 0.2512410283088684,
          "81": 1.0162619352340698,
          "82": -0.4955516755580902,
          "83": 1.1062220335006714,
          "84": -1.4770700931549072,
          "85": 0.168018639087677,
          "86": -0.5787677764892578,
          "87": -2.0088698863983154,
          "88": 0.9275863170623779,
          "89": 1.9093377590179443,
          "90": 0.6578400731086731,
          "91": -0.06611917912960052,
          "92": 0.8575240969657898,
          "93": 1.0640300512313843,
          "94": 0.7253079414367676,
          "95": -0.4093036949634552,
          "96": 0.10866377502679825,
          "97": -1.2170238494873047,
          "98": -0.29109254479408264,
          "99": -0.5267188549041748,
          "100": 0.5083965063095093,
          "101": 0.4486139416694641,
          "102": 0.1719679981470108,
          "103": 0.10142958909273148,
          "104": -0.6498490571975708,
          "105": -0.004277281928807497,
          "106": 0.5687569975852966,
          "107": 0.015863118693232536,
          "108": 1.3670985698699951,
          "109": 1.574263334274292,
          "110": -1.662421703338623,
          "111": -1.3062474727630615,
          "112": 0.8676267862319946,
          "113": 0.6895701885223389,
          "114": 0.6246949434280396,
          "115": -2.6729519367218018,
          "116": -1.1321260929107666,
          "117": -2.0027477741241455,
          "118": 0.04390132427215576,
          "119": -1.0645655393600464,
          "120": -0.6261688470840454,
          "121": 0.7527338266372681,
          "122": 1.7387394905090332,
          "123": -1.270782709121704,
          "124": -2.5622897148132324,
          "125": 0.17031000554561615,
          "126": 1.4560439586639404,
          "127": -0.36377888917922974,
          "128": -0.6093310117721558,
          "129": 0.6123652458190918,
          "130": -1.6768590211868286,
          "131": 2.618668556213379,
          "132": 1.3344266414642334,
          "133": -1.4036208391189575,
          "134": 0.6122903823852539,
          "135": -0.041229210793972015,
          "136": -0.1838461309671402,
          "137": -0.4294702112674713,
          "138": -0.41740918159484863,
          "139": 0.5863757729530334,
          "140": 0.4543740749359131,
          "141": 1.1500823497772217,
          "142": -0.9455029964447021,
          "143": 0.3975309431552887,
          "144": 2.5468389987945557,
          "145": -0.7310499548912048,
          "146": -0.6243547201156616,
          "147": 0.4292818605899811,
          "148": -0.3064795434474945,
          "149": -0.7313567399978638,
          "150": 0.08496063202619553,
          "151": 0.03525986894965172,
          "152": 2.974518299102783,
          "153": -0.41948696970939636,
          "154": -0.1778722107410431,
          "155": 2.0117781162261963,
          "156": 0.04488324373960495,
          "157": 0.4193102717399597,
          "158": 0.6040277481079102,
          "159": 1.9867515563964844,
          "160": 0.48575785756111145,
          "161": 0.4550148844718933,
          "162": 0.09412471950054169,
          "163": -0.1349269598722458,
          "164": -1.0557247400283813,
          "165": 1.3339118957519531,
          "166": -0.6780303120613098,
          "167": -0.952586829662323,
          "168": 1.5383213758468628,
          "169": -0.4264397919178009,
          "170": -0.21335318684577942,
          "171": -1.2399287223815918,
          "172": -0.07453616708517075,
          "173": -0.6121840476989746,
          "174": 3.2219858169555664,
          "175": -0.8491171002388,
          "176": 0.8513778448104858,
          "177": -0.3907008171081543,
          "178": 0.033552076667547226,
          "179": 1.4248247146606445,
          "180": -0.6346656084060669,
          "181": 0.7945194840431213,
          "182": 0.899316132068634,
          "183": -0.2214163839817047,
          "184": -1.253058910369873,
          "185": 0.2447926551103592,
          "186": -0.18432755768299103,
          "187": 1.2493138313293457,
          "188": -1.0391864776611328,
          "189": -0.06492853164672852,
          "190": 0.5519790053367615,
          "191": 1.317330002784729,
          "192": 0.7704604864120483,
          "193": -1.025826096534729,
          "194": -0.38037583231925964,
          "195": 1.2359817028045654,
          "196": -0.5672608017921448,
          "197": -0.046737462282180786,
          "198": -0.7737541794776917,
          "199": -0.18292205035686493,
          "200": -2.058048725128174,
          "201": -1.5749956369400024,
          "202": 0.7115734815597534,
          "203": 0.931306779384613,
          "204": 0.7816314697265625,
          "205": 2.9082674980163574,
          "206": -0.00507983798161149,
          "207": -0.9507644772529602,
          "208": -0.7675715088844299,
          "209": 0.43350470066070557,
          "210": 1.7842047214508057,
          "211": -1.4217849969863892,
          "212": 0.7426640391349792,
          "213": -0.6217442154884338,
          "214": 1.6264021396636963,
          "215": 0.3564104735851288,
          "216": 0.41232064366340637,
          "217": 0.37510526180267334,
          "218": 1.367364764213562,
          "219": 0.5342472195625305,
          "220": -0.01648944988846779,
          "221": 0.6636980772018433,
          "222": 1.4658175706863403,
          "223": 0.764706015586853,
          "224": 0.6988527178764343,
          "225": -1.7008224725723267,
          "226": -1.0746809244155884,
          "227": 0.2095537632703781,
          "228": -0.6707289814949036,
          "229": 0.052974533289670944,
          "230": 1.2378435134887695,
          "231": -0.6856462359428406,
          "232": -1.0825285911560059,
          "233": -1.013485074043274,
          "234": -1.5181797742843628,
          "235": -0.5096908211708069,
          "236": -1.4613885879516602,
          "237": 0.5892316102981567,
          "238": -0.35172611474990845,
          "239": 1.6812220811843872,
          "240": -0.9275626540184021,
          "241": -1.1220145225524902,
          "242": -0.5232712030410767,
          "243": -0.3862450122833252,
          "244": -0.7740256786346436,
          "245": -0.0600225105881691,
          "246": 0.6812162399291992,
          "247": 0.3264419138431549,
          "248": 0.6547717452049255,
          "249": 3.521151065826416,
          "250": 0.7942056655883789,
          "251": -0.866327166557312,
          "252": 1.0661838054656982,
          "253": 1.0296316146850586,
          "254": -0.8379734754562378,
          "255": 1.3267242908477783,
          "256": -0.34471479058265686,
          "257": 0.36911433935165405,
          "258": -2.0530593395233154,
          "259": -0.9497919678688049,
          "260": 0.8489425778388977,
          "261": 1.1936641931533813,
          "262": -1.096013069152832,
          "263": -0.2228098064661026,
          "264": 2.1411354541778564,
          "265": -1.627657413482666,
          "266": 1.3973214626312256,
          "267": 2.4288675785064697,
          "268": 0.6755334734916687,
          "269": 1.182874083518982,
          "270": 0.12330830842256546,
          "271": -0.7345227599143982,
          "272": 0.39082789421081543,
          "273": -0.11177850514650345,
          "274": -0.9091545939445496,
          "275": 0.37065255641937256,
          "276": 0.2094561755657196,
          "277": 0.9465230107307434,
          "278": 0.16268950700759888,
          "279": 0.7679404616355896,
          "280": -0.09666437655687332,
          "281": 0.10387928783893585,
          "282": -0.317217618227005,
          "283": -0.4543929398059845,
          "284": 0.0939764529466629,
          "285": -0.8136551976203918,
          "286": -0.6460458636283875,
          "287": 0.21545173227787018,
          "288": 0.5655009746551514,
          "289": 1.482683539390564,
          "290": 0.1974058449268341,
          "291": -2.5641987323760986,
          "292": 1.6761475801467896,
          "293": -2.308473587036133,
          "294": 0.5819029211997986,
          "295": -1.8492680788040161,
          "296": -0.5120848417282104,
          "297": 0.5906984806060791,
          "298": 0.8184546232223511,
          "299": -1.469818115234375,
          "300": 0.8375949263572693,
          "301": 0.7217205762863159,
          "302": -0.782129168510437,
          "303": 1.2672115564346313,
          "304": -1.032938838005066,
          "305": -0.13762108981609344,
          "306": -0.5206301212310791,
          "307": -0.7316924333572388,
          "308": 0.7183674573898315,
          "309": -0.48094144463539124,
          "310": -0.06506754457950592,
          "311": -1.0584697723388672,
          "312": 0.7312715649604797,
          "313": -0.06710100173950195,
          "314": 1.5760036706924438,
          "315": -3.2605373859405518,
          "316": 0.8569489121437073,
          "317": -0.4901585578918457,
          "318": -0.27748095989227295,
          "319": 0.5054154992103577,
          "320": -1.554969310760498,
          "321": -0.5809788703918457,
          "322": 0.3365989625453949,
          "323": -1.2369188070297241,
          "324": -1.607661485671997,
          "325": 0.3697319030761719,
          "326": -1.2209582328796387,
          "327": 2.066115617752075,
          "328": -1.7135429382324219,
          "329": 1.8137322664260864,
          "330": -0.6210857629776001,
          "331": -0.05818942189216614,
          "332": -1.7767194509506226,
          "333": 0.18921826779842377,
          "334": -2.2435429096221924,
          "335": 2.5873310565948486,
          "336": -0.799098014831543,
          "337": -0.4023855924606323,
          "338": -0.21415777504444122,
          "339": 1.072517991065979,
          "340": 0.7093626856803894,
          "341": -2.7828662395477295,
          "342": 0.008115183562040329,
          "343": 1.4116344451904297,
          "344": 0.48366406559944153,
          "345": -1.1391230821609497,
          "346": -0.08176017552614212,
          "347": 0.14585858583450317,
          "348": -0.5092254877090454,
          "349": 0.44554027915000916,
          "350": -2.5769801139831543,
          "351": -1.2093700170516968,
          "352": -2.52573299407959,
          "353": 0.9981369376182556,
          "354": -0.23098963499069214,
          "355": -0.4370298683643341,
          "356": 0.1635967195034027,
          "357": 2.057159662246704,
          "358": 0.3092207908630371,
          "359": -0.5447149872779846,
          "360": -0.09196265786886215,
          "361": 1.4285622835159302,
          "362": 0.18301576375961304,
          "363": 2.0708553791046143,
          "364": -0.4427517354488373,
          "365": -1.067923665046692,
          "366": 2.7703704833984375,
          "367": -0.7588644623756409,
          "368": 2.3608908653259277,
          "369": 0.12093184143304825,
          "370": -1.7451251745224,
          "371": 0.8528242111206055,
          "372": -2.03195858001709,
          "373": -0.24272091686725616,
          "374": -0.1871194988489151,
          "375": -0.8541774153709412,
          "376": 0.3624056875705719,
          "377": -1.8029723167419434,
          "378": 0.6236086487770081,
          "379": 0.32038313150405884,
          "380": -0.26408571004867554,
          "381": -1.8090335130691528,
          "382": 0.41241055727005005,
          "383": -0.21257516741752625,
          "384": 0.9135098457336426,
          "385": -1.4417797327041626,
          "386": 0.13725650310516357,
          "387": -1.0807287693023682,
          "388": 0.6894084215164185,
          "389": 0.2539658844470978,
          "390": 0.23300117254257202,
          "391": -1.3691569566726685,
          "392": -0.272674560546875,
          "393": -1.595253348350525,
          "394": 0.5228579640388489,
          "395": 1.763790488243103,
          "396": 0.5646588802337646,
          "397": 1.3485922813415527,
          "398": -1.0669286251068115,
          "399": 0.1623787134885788,
          "400": -0.4238668978214264,
          "401": -1.660470724105835,
          "402": 0.081759512424469,
          "403": -1.4853527545928955,
          "404": -3.4604685306549072,
          "405": 0.1303931325674057,
          "406": -0.49922996759414673,
          "407": -1.0621817111968994,
          "408": -0.8724666833877563,
          "409": 0.25800254940986633,
          "410": -0.4950449764728546,
          "411": 1.6232378482818604,
          "412": 1.5203980207443237,
          "413": 0.8421380519866943,
          "414": 0.43871453404426575,
          "415": -1.9493697881698608,
          "416": -0.997603178024292,
          "417": -0.30434876680374146,
          "418": 1.7663906812667847,
          "419": 4.030367851257324,
          "420": -1.767611026763916,
          "421": -1.5564172267913818,
          "422": 1.5827568769454956,
          "423": -1.9677692651748657,
          "424": -1.32717764377594,
          "425": -0.21997973322868347,
          "426": 0.6084210276603699,
          "427": -0.05372142791748047,
          "428": 1.6504194736480713,
          "429": -1.4330286979675293,
          "430": -0.46370071172714233,
          "431": -0.20011687278747559,
          "432": 0.391025185585022,
          "433": 1.2541425228118896,
          "434": 0.6730061769485474,
          "435": 1.5857411623001099,
          "436": 0.4833535850048065,
          "437": -1.3501689434051514,
          "438": -0.846012532711029,
          "439": 1.108983039855957,
          "440": 1.1568090915679932,
          "441": -1.2555317878723145,
          "442": 1.9790691137313843,
          "443": 0.06944673508405685,
          "444": 0.9903575778007507,
          "445": -0.9850523471832275,
          "446": 1.5201178789138794,
          "447": -0.03737800568342209,
          "448": -0.6175441741943359,
          "449": -1.9643306732177734,
          "450": 0.673436164855957,
          "451": -0.7140562534332275,
          "452": -0.3643796741962433,
          "453": 0.4776695966720581,
          "454": -1.698392629623413,
          "455": -1.9165581464767456,
          "456": -0.42459022998809814,
          "457": -1.2984750270843506,
          "458": 1.0303829908370972,
          "459": 0.015575430355966091,
          "460": -0.6900187730789185,
          "461": -1.7025823593139648,
          "462": -1.582006573677063,
          "463": 1.0725605487823486,
          "464": -0.25498223304748535,
          "465": -0.721825122833252,
          "466": -0.601209282875061,
          "467": 0.5493803024291992,
          "468": 0.2360847443342209,
          "469": 0.13563019037246704,
          "470": 1.2077592611312866,
          "471": -2.0047805309295654,
          "472": -2.0402069091796875,
          "473": -1.7464994192123413,
          "474": 0.09871934354305267,
          "475": -0.26983702182769775,
          "476": 3.1646857261657715,
          "477": 1.505493402481079,
          "478": 0.0335286483168602,
          "479": 0.647578239440918,
          "480": 1.150115728378296,
          "481": -0.7974562048912048,
          "482": 1.6080050468444824,
          "483": -0.9000463485717773,
          "484": 0.924185037612915,
          "485": -1.4270139932632446,
          "486": -0.6297164559364319,
          "487": -0.47337397933006287,
          "488": -2.067095994949341,
          "489": -1.7779768705368042,
          "490": 0.7797201871871948,
          "491": -0.419154554605484,
          "492": -1.3558697700500488,
          "493": 1.6216195821762085,
          "494": -0.5497959852218628,
          "495": 0.37742745876312256,
          "496": 0.3379751443862915,
          "497": 1.3188072443008423,
          "498": 0.613309383392334,
          "499": -1.8372060060501099,
          "500": -0.5436215400695801,
          "501": -1.1518840789794922,
          "502": 0.01985710673034191,
          "503": 0.46832790970802307,
          "504": -0.39663946628570557,
          "505": 1.3050901889801025,
          "506": -0.7755225300788879,
          "507": 1.5564261674880981,
          "508": 0.3622252345085144,
          "509": 2.708425283432007,
          "510": 1.0620932579040527,
          "511": -0.26065540313720703,
          "512": -1.1877098083496094,
          "513": -0.4732236862182617,
          "514": 0.04447747394442558,
          "515": -0.8847239017486572,
          "516": -0.4109242260456085,
          "517": 1.3363733291625977,
          "518": 0.8656824827194214,
          "519": 0.8740571141242981,
          "520": -0.8870473504066467,
          "521": 0.11771674454212189,
          "522": -3.5450856685638428,
          "523": 0.44589710235595703,
          "524": -0.27654290199279785,
          "525": 1.2059893608093262,
          "526": 0.04681931808590889,
          "527": 1.1028259992599487,
          "528": 0.14746235311031342,
          "529": -0.7960502505302429,
          "530": 0.03434864431619644,
          "531": -1.5824782848358154,
          "532": -0.24987991154193878,
          "533": 0.3988424241542816,
